limited 0.23163 -0.43635 -0.36372 -0.011074 0.30799 0.33248 -2.9863 0.4397 -0.16834 -0.17142 0.178 -0.13573 -0.079337 0.19349 0.0042229 0.30805 -0.41951 0.21816 0.34897 -0.037171 -0.30002 0.56463 -0.43179 0.0098182 0.18253 -0.27558 -0.25834 0.11309 0.31216 0.55583 -0.28182 0.2009 -0.4063 -0.15719 -0.022979 0.041595 0.48376 -0.30993 -0.56001 -0.25355 -0.31163 0.01348 -0.39161 0.29532 0.31737 0.31988 0.26004 -0.16598 -0.21676 -0.58984 0.22543 1.1275 -0.26485 0.54934 -0.1378 -0.14565 0.49 -0.11576 0.41639 -0.39273 -0.44823 -0.33015 -0.24286 0.251 -0.21058 0.032444 0.51943 0.35068 0.21842 -0.01483 -0.3177 0.067288 0.29866 -0.039865 0.53026 -0.12496 0.11255 0.066778 0.24365 0.659 0.28348 -0.43784 -0.040703 -0.32474 -0.061205 0.079436 -0.16697 -0.060942 -0.31582 -0.32458 0.4496 0.088912 0.29564 -0.34961 -0.20565 -0.37193 -2.2671 -0.020156 -0.35803 0.72917 -0.46621 0.024711 -0.29457 0.52824 0.43726 -0.21945 -0.15606 0.028836 0.18843 0.40168 0.56766 -0.24644 0.093226 -0.0089896 0.47308 -0.21506 0.058833 0.24364 -0.28261 0.22827 0.40642 -0.36761 -0.59106 -0.23412 0.10708 0.32373 -0.44615 0.26183 0.099595 0.13879 0.28144 0.1291 -0.066344 0.25896 -0.27067 0.2251 -0.043158 -0.22887 0.10636 -0.016964 0.4138 -0.16353 0.33584 -0.48053 0.014425 0.29339 0.30547 -0.65837 -0.10787 -0.12422 -0.018957 -0.103 0.51616 0.27878 -0.18253 0.29034 0.36893 0.19759 0.19901 0.080767 -0.55625 0.096761 0.27979 0.4407 0.12489 -0.68013 0.25944 -0.22451 -0.58533 -0.37263 -0.041034 -0.13059 0.43559 -0.3084 0.090729 0.014395 0.32957 0.050502 0.84484 0.25822 -0.56464 0.1253 -0.20094 0.35154 -0.025923 0.011559 -0.46714 0.038552 -0.037947 -0.69582 -0.37332 -0.15926 -0.48417 -0.12436 0.084754 0.32213 0.12157 0.25405 0.064622 -0.25691 0.26268 0.35159 -0.2676 0.20349 0.10755 0.1297 -0.16476 0.010856 -0.44851 -0.37812 0.015093 0.098021 -0.068333 0.64416 -0.10805 -0.019472 -0.034757 -0.073634 0.19465 0.47325 -0.25989 -0.33029 0.21735 0.27246 -2.498 0.28244 -0.070935 -0.13666 0.12782 0.36679 -0.059829 -0.28437 -0.30331 0.082268 -0.037134 -0.30573 -0.1433 -0.67973 0.49068 0.22472 -0.026418 -0.1948 -0.45663 -0.26657 0.69684 0.22687 -0.42352 -0.16957 -0.14959 -0.061063 0.12269 0.11249 -0.09334 0.054045 -0.16112 -0.32238 -0.050699 -0.60863 -0.41486 -0.085709 -2.8937e-05 0.30425 -0.0090974 0.4509 0.095355 0.031653 -0.42071 -0.58502 0.25936 0.027192 -0.024502 -0.017132 0.44014 -0.11186 -0.16214 0.55349 -0.069374 0.29932 0.46355 -0.29361 -0.11857 -0.40695 -0.10838 0.5111 -0.0062446 0.019792 -0.076058 0.039276 0.34268 -0.23277 -0.1086 0.10127 0.19664 -0.68364 -0.27946 -0.40993 0.22338 0.011993 0.27447 -0.27783
saves 0.2944 -0.033466 -0.0094022 -0.080354 0.1978 0.40949 -2.2165 -0.18752 0.044942 -0.16052 -0.17226 0.068505 0.022157 0.056001 -0.64023 -0.54025 0.13729 -0.034076 -0.21615 -0.021494 0.69232 -0.16532 -0.013639 -0.21334 -0.13307 0.2808 0.22019 0.41253 0.22476 0.083686 0.45645 0.17721 -0.078521 -0.53883 0.82909 -0.05898 0.032576 0.3975 -0.023271 0.063095 -0.073887 -0.16193 0.042974 0.047762 0.070717 0.54162 0.1866 0.29434 0.29953 -0.078136 0.51786 0.23726 0.093968 -0.065334 -0.19827 -0.47298 -0.19065 0.049505 -0.46327 0.014812 0.022204 0.3615 0.31779 -0.24477 -0.32299 0.1022 0.42202 -0.014976 -0.44072 0.10879 0.61013 0.32711 0.15695 -0.056366 -0.051331 0.29861 0.033516 0.27803 0.071318 0.019837 -0.28462 -0.052082 0.29109 0.14986 -0.23166 0.26761 0.1013 0.88166 0.13453 0.18676 0.21838 0.1362 -0.22173 0.25837 0.91903 -0.14016 -1.0963 0.14129 0.061746 -0.45542 0.17239 -0.06682 0.12663 0.17549 0.068706 0.10777 -0.096391 0.12548 -0.62905 -0.36384 -0.21943 0.058639 0.070613 -0.53088 -0.0021644 -0.57104 -0.29901 -0.042787 0.1269 0.22206 -0.34424 -0.2927 0.024005 0.38668 0.047769 0.15197 0.2763 -0.53724 -0.092926 0.11354 -0.47023 -0.38774 0.088712 0.050644 -0.39886 0.074407 0.11399 0.44996 0.137 0.17255 -0.27314 -0.8289 0.28074 -0.083743 0.099785 0.35546 0.051391 0.30958 -1.0494 -0.36721 -0.27665 0.018696 -0.032858 0.28365 0.50103 0.21554 -0.2285 -0.10659 0.57272 -0.65232 0.13227 0.19389 -0.25481 -0.16508 -0.06713 -0.077346 -0.1368 0.1284 0.38575 -0.040836 -0.37625 -0.46164 -0.38597 -0.090283 -0.05209 -0.11086 0.045116 -0.75369 -0.07013 -0.39621 0.34526 -0.45618 -0.11952 -0.13022 0.12262 -0.017344 0.46723 0.17945 0.2515 0.14027 0.32017 0.22045 -0.23914 -0.3951 -0.33257 -0.39307 -0.042152 0.0088513 0.015455 0.3371 -0.0026911 0.59409 -0.71408 0.36554 0.13848 0.026568 0.89412 -0.0012532 -0.022647 -0.75555 0.082077 0.59915 -0.0035567 -0.0059011 -0.15413 0.054397 0.40705 -0.43544 0.42039 0.48656 -0.42508 0.26397 0.29658 0.22181 -1.7739 0.15501 0.7576 0.13862 -0.25531 -0.49922 0.39885 0.09525 -0.99823 0.10327 0.42915 0.41858 0.099488 -0.38387 0.38921 -0.033919 0.052566 0.10982 -0.86208 0.0016354 -0.43652 -0.27292 0.25838 0.44212 -0.50767 0.56955 0.26567 0.054331 0.1866 0.098033 0.28049 0.11285 -0.29755 -0.0061828 -0.67492 0.09665 0.13239 -0.032985 0.031666 -0.14194 -0.050292 -0.46551 0.42084 -0.24324 -0.0028469 0.2787 -0.0012739 0.45414 -0.099165 0.5364 0.1688 -0.1319 -0.059579 -0.20419 0.016645 0.21749 0.77515 0.55634 -0.2373 0.607 0.16268 -0.32397 0.22886 -0.071808 -0.44237 0.39986 0.77165 -0.13126 0.18251 -0.38197 -0.39491 -0.28705 0.32283 0.3667 -0.34551 0.14692
sleek 0.47058 0.022122 0.55425 -0.4007 0.68456 0.57653 -1.6001 -0.6788 0.2305 -0.37976 0.28395 -0.77761 0.6857 0.24744 -0.31231 -0.67928 -0.43401 -0.21081 -0.26722 -0.15369 -1.1218 -0.24814 -0.47289 0.28452 0.32495 0.32865 0.44459 0.33801 -0.15168 -0.39376 0.11421 0.19774 0.28634 0.08133 0.29523 -0.26623 0.13366 0.60313 0.7322 -0.24579 -0.014893 -0.53046 0.24293 -0.060958 -0.42829 0.1041 -0.25572 -0.42366 0.031996 -0.17975 0.10492 0.20992 -0.30692 -0.09314 0.61169 0.21551 0.16732 -0.63348 0.51068 0.024403 0.43992 -0.24271 -0.17496 0.68462 0.19693 -0.67057 -0.36833 0.43729 0.2805 -0.25343 0.35443 0.26424 -0.11206 -0.011312 -0.14826 -0.56594 -0.069368 0.46793 -0.10598 0.29183 0.075234 0.68157 -0.14607 0.12713 0.091649 -0.36085 -0.0090948 0.49359 -0.36258 -0.51963 0.0060125 0.020579 0.28883 0.11581 0.16804 0.047873 -1.7931 -0.048351 -0.17098 -0.15782 -0.023626 -0.34274 0.19013 -0.16578 -0.51009 0.062866 -0.66486 0.91291 0.24273 -0.14506 0.26505 -0.28921 -0.046174 -0.38047 -0.70775 0.11762 0.48226 -0.41622 0.45413 -0.033119 -0.14097 -0.14749 0.12487 0.067766 -0.037026 -0.50846 -0.038744 -0.042345 0.49277 0.0015653 -0.33052 -0.21505 -0.24587 -0.50748 -0.61075 0.58388 -0.00051633 0.37139 0.35303 -0.37416 -0.20238 -0.12271 0.29868 -0.31568 -0.28785 0.44086 -0.27266 0.012622 0.093846 0.21356 -0.059316 0.10079 0.022818 -0.34512 0.42408 0.36096 0.68711 -0.23024 -0.22494 0.24709 0.42001 0.8896 -0.21753 -0.025787 -0.10715 0.15707 0.088628 -0.31188 0.23098 0.33888 -0.0072621 0.09386 -0.017512 0.013304 -0.33632 -0.35912 -0.30773 0.31203 0.62516 0.31016 0.54694 -0.34133 0.26372 0.11999 0.61347 0.52999 0.039456 -0.033139 -0.10628 -0.32266 -0.27412 0.21657 -0.50203 0.73239 0.057151 0.40525 -0.1324 0.28635 0.31645 0.20732 0.15495 -0.63203 0.32714 -0.29679 -0.6271 -0.20399 0.56244 -0.26168 0.68934 -0.39142 -0.10086 -0.040115 -0.19385 0.14997 0.24606 0.12482 0.023642 -0.21476 0.30482 -0.46767 -0.14865 -0.4881 0.59781 0.37269 -1.1744 -0.68903 0.17512 -0.90464 -0.21873 0.92811 -0.0048709 -0.10683 0.3053 -0.40704 -0.065566 0.20747 -0.010624 0.3215 0.30489 -0.32051 -0.074096 -0.015723 0.54176 0.23705 0.55596 0.052314 -0.38042 -0.36561 -0.038986 -0.49335 -0.14713 -0.46201 0.17817 0.078502 -0.13268 0.16339 0.038092 -0.022505 -0.36658 -0.27593 0.25539 0.40941 0.025462 -0.044835 0.17931 -0.35153 -0.64818 0.022524 -0.36722 0.02064 0.015489 -0.44353 -0.7031 0.30237 0.37378 -0.093571 -0.3056 0.12098 -0.71769 -0.24 0.67923 0.079196 0.036558 -0.11054 0.47944 0.40312 0.042925 0.16806 -0.34029 -0.18098 0.31936 -0.028411 -0.79498 -0.38701 0.68359 -0.20267 -0.44621 -0.090832 -0.538 -0.0084676
four 0.35891 0.35063 0.045032 -0.24412 -0.31184 0.1611 -2.8551 0.1457 0.0031091 -0.034258 0.36197 -0.11138 -0.40159 0.15509 -0.18916 -0.54492 0.0092595 -0.45666 -0.18144 0.14401 -0.30373 -0.03788 -0.34617 -0.075677 -0.027381 0.14805 0.39242 -0.33559 -0.11548 0.11517 -0.2237 -0.20659 -0.07385 -0.23004 -0.0037458 -0.18447 -0.29299 0.2447 -0.20066 0.017969 -0.64803 0.15947 0.22661 0.065389 0.0029591 -0.5653 0.053429 -0.21636 -0.252 -0.036094 0.17041 -0.31912 0.10502 0.056898 -0.055031 0.29124 0.52631 0.46445 -0.072461 0.27419 -0.22997 0.065748 -0.04173 0.20673 0.14551 -0.25453 0.016264 0.042354 0.22439 0.15735 -0.50131 0.14211 0.45987 -0.064076 -0.1393 -0.55401 -0.24102 0.10649 -0.23396 -0.038791 0.53513 -0.26858 0.26438 -0.54056 0.40102 0.15232 0.17451 0.1118 -0.19255 -0.26619 0.44967 -0.4218 -0.37488 0.088399 0.17136 0.031912 -2.2141 -0.221 0.05351 0.025304 0.62105 0.33318 0.66499 0.57002 -0.17287 0.17364 0.15481 -0.57529 -0.066564 -0.47223 -0.23434 0.31466 -0.25928 0.29886 0.25962 -0.4914 -0.49713 0.38339 0.25845 -0.17467 -0.35717 -0.015127 0.23638 -0.58048 0.18343 0.18938 0.026134 -0.12167 -0.13927 0.040898 0.021369 -0.21045 -0.30677 0.17438 -0.26965 0.13884 0.32822 0.10221 0.078233 0.39571 -0.17899 -0.077144 0.62879 -0.3906 0.12223 -0.24987 0.50978 -0.20076 0.052441 0.011209 0.06423 -0.02033 0.32802 0.028281 0.14717 -0.12341 0.66515 -0.11356 -0.34306 -0.42881 -0.28044 -0.072799 0.26747 0.036548 0.33181 -0.012987 -0.046574 -0.092998 0.20573 0.49671 0.052197 -0.27116 0.32793 0.1177 0.24849 0.051468 0.1291 0.044832 -0.018636 0.055718 0.33274 -0.61118 -0.16085 -0.42834 -0.30192 0.14833 -0.38578 -0.2858 0.054778 0.097272 0.028669 0.028709 -0.10221 0.2924 -0.19241 0.30788 0.10161 0.47977 -0.27934 -0.10969 0.14511 -0.14611 0.19874 0.21131 -0.19524 0.24639 -0.0095788 -0.40447 -0.040557 -0.019348 0.42959 0.14057 0.075321 -0.60066 0.15213 0.093686 -0.5139 0.2068 0.16563 0.27486 -0.41561 -0.14046 0.20362 -0.012964 -3.291 -0.051171 0.24195 0.1679 -0.50181 -0.29877 0.14089 0.1962 0.43549 -0.0037354 -0.10177 -0.084678 -0.36391 0.34604 0.078604 -0.31448 0.08705 -0.12255 0.0005049 0.53612 -0.12045 -0.15 -0.11923 0.41298 -0.36981 0.13108 0.17841 0.021178 0.083418 0.28023 -0.081981 0.39405 -0.19968 -0.20482 -0.2345 0.21769 -0.015642 -0.02981 0.1268 0.73471 0.54259 0.1536 -0.1763 0.17301 0.24934 -0.32415 -0.12621 0.22944 0.25014 0.050763 0.34282 0.080917 0.15846 -0.1702 0.16176 0.018434 0.63903 0.37635 0.57081 0.56838 0.10668 0.17978 -0.055637 -0.31906 0.1977 0.52173 0.22091 -0.116 -0.051165 -0.42476 -0.3358 -0.31451 0.2008 0.70075 -0.40247 0.14149
saved 0.22485 -0.022911 -0.32617 0.052214 -0.27203 0.38031 -2.8441 0.29639 0.33564 -0.081102 -0.45523 -0.099342 0.16758 -0.12922 -0.1558 -0.11743 -0.30744 0.21312 0.43768 0.43076 0.35007 -0.033516 -0.027653 -0.38512 0.22314 0.30508 0.47615 -0.037923 -0.29318 0.15554 0.33344 0.046028 -0.048921 -0.075245 0.27661 -0.039702 -0.32915 0.41813 0.28798 0.059877 0.0091617 0.063401 -0.056402 0.31175 -0.30506 0.36969 0.27715 -0.11806 0.30814 -0.16209 0.36807 0.40273 -0.056746 -0.47205 -0.18693 -0.18986 -0.4136 0.30052 -0.36252 -0.02456 -0.17068 0.16344 -0.029231 0.031393 -0.074907 0.18718 -0.20736 -0.26966 -0.57113 0.37345 0.37615 -0.075407 -0.036976 0.18545 0.018566 0.68302 0.048975 0.50419 0.67252 -0.38912 -0.3046 -0.66196 0.1057 0.13768 -0.35994 -0.040718 -0.20963 0.52968 0.13049 0.17989 0.16113 -0.24452 -0.045542 0.40488 0.39424 -0.60695 -0.91077 0.21995 -0.18836 -0.59326 -0.47202 -0.16448 0.31247 -0.2437 -0.32817 0.30115 -0.21907 -0.043161 -0.17823 -0.45437 -0.1997 -0.19513 -0.082926 -0.37776 -0.12535 0.38503 -0.46155 -0.35837 -0.012773 0.049382 -0.081887 0.35728 -0.024245 0.16209 0.1105 0.17145 0.5038 -0.48041 -0.44928 0.54842 -0.58303 -0.3151 -0.36608 0.31684 0.77157 -0.24085 -0.10131 0.2964 -0.14632 0.24053 -0.13296 0.10889 0.21188 -0.15124 0.52094 -0.17229 0.20925 0.36708 -0.56008 -0.013174 -0.017601 0.12027 -0.1282 -0.30726 0.39707 0.29126 -0.46181 -0.20822 0.2627 -0.12007 0.052735 -0.18331 0.061781 -0.119 0.43381 0.22425 -0.38596 -0.27476 0.56324 0.37603 -0.23103 -0.28404 -0.20342 -0.17641 -0.73331 0.13205 0.035302 -0.28126 0.084477 -0.51611 -0.23786 0.2418 -0.11881 0.077506 0.12623 -0.03347 0.58889 0.29552 0.03184 0.12055 0.73371 0.37313 -0.094919 -0.059392 -0.12695 -0.43496 -0.045457 -0.11051 -0.096982 -0.36348 -0.087459 0.71477 -0.55317 0.19233 0.21432 -0.24888 0.2669 0.20059 0.41075 -0.18204 0.28872 0.67704 0.32756 0.32478 0.031468 -0.0042813 0.57987 -0.10487 0.32657 0.49509 -0.25626 0.77533 -0.13261 0.088528 -2.0796 0.09704 0.73943 0.084843 -0.34166 -0.23332 0.19154 0.63757 -0.47811 0.36683 0.28978 0.59897 -0.29378 0.26555 0.23278 -0.30994 -0.23434 0.2352 -0.36577 -0.12718 0.047007 -0.12156 0.043465 0.48856 -0.21518 0.20937 0.38706 -0.28931 0.084586 -0.17075 -0.28906 0.18181 -0.0063721 0.31197 -0.60194 0.22014 -0.023978 -0.35037 -0.26088 -0.24162 0.025735 -0.85291 0.11517 -0.27946 -0.19369 0.1991 -0.078316 0.41342 -0.25394 0.18555 -0.33196 0.13163 0.22084 -0.45975 0.38766 0.050225 0.65968 0.26337 -0.01869 0.71866 -0.055342 -0.23155 0.22695 0.053143 -0.14625 0.46531 0.043506 -0.3021 -0.074139 -0.10791 -0.2128 -0.41509 0.22024 0.46563 -0.35304 0.42824
poorly 0.3463 -0.19056 -0.031892 -0.20223 -0.39322 -0.10254 -3.0923 0.35963 0.082785 0.4362 0.17469 -0.27441 0.30444 -0.23514 -0.12814 0.053498 -0.013758 0.15733 -0.10938 -0.61049 -0.56674 0.1277 -0.10775 -0.26021 -0.45395 -0.17668 0.094924 -0.74879 0.30277 -0.032164 -0.20378 -0.41682 -0.42042 0.52503 -0.10915 0.13173 -0.25509 -0.050265 -0.39931 -0.20947 0.46533 0.00246 0.30297 0.17025 0.30339 -0.017937 -0.3253 -0.26342 -0.19575 -0.49883 -0.5499 0.10364 6.1475e-06 -0.0045373 -0.07405 0.30052 -0.037108 0.25146 -0.15272 -0.45602 -0.30526 0.059138 -0.18941 -0.13816 0.39248 -0.024604 -0.4136 0.10072 0.071785 -0.31751 -0.0329 0.021873 -0.20546 -0.086433 0.37197 0.074751 0.04522 -0.097615 -0.070222 0.84277 0.03288 -0.68668 0.12866 -0.040113 -0.66629 0.026507 0.027139 0.47523 0.099131 -0.68814 -0.036169 0.26818 -0.030015 -0.64216 0.43041 0.015152 -0.99485 0.14134 -0.35216 0.085153 -0.072155 -0.12766 -0.56783 -0.13755 0.21001 0.33297 -0.11651 -0.41165 0.31072 -0.20925 -0.47342 0.11459 -0.0038579 -0.17427 -0.26951 0.057492 0.23524 -0.50411 -0.013116 -0.12568 -0.1374 -0.43406 0.31839 0.15147 0.098275 -0.17002 0.20515 -0.48134 -0.030427 0.87003 0.0076787 0.073369 0.21734 -0.092868 -0.037652 -0.043292 0.28768 0.54097 0.19776 -0.0051302 0.95422 0.13301 0.29901 0.1716 -0.26199 -0.31493 -0.33055 0.38246 -0.129 0.054147 -0.14779 0.22782 -0.1022 -0.14509 0.15844 -0.074001 -0.3113 -0.014163 -0.22044 0.21247 0.27072 0.15025 0.41509 -0.049068 -0.16062 0.27998 0.44219 -0.30541 -0.55825 -0.0663 0.2995 -0.67066 -0.087878 -0.049088 0.14144 -0.49188 0.44901 0.15778 -0.38151 -0.40249 0.29212 -0.18588 0.46621 0.34599 -0.52024 -0.32722 0.12714 -0.24208 0.36088 0.36169 -0.2349 -0.19975 -0.065144 -0.32583 -0.56628 0.34009 0.22842 0.017089 -0.44197 0.20065 0.094803 0.032535 0.38477 0.34494 -0.080595 0.19218 0.02334 0.16289 -0.14076 0.63723 -0.035789 0.67659 0.31797 0.00025775 0.44782 0.25793 0.12841 0.3671 -0.086869 -0.15961 -0.3339 0.17076 0.095156 0.013675 -0.6023 0.60078 -0.4015 0.28781 0.78145 -0.48954 -0.12205 -0.23777 0.094211 -0.49536 0.058934 -0.14223 0.10592 0.20782 -0.056668 0.17541 -0.079879 0.30305 0.18131 -0.0035925 -0.21178 0.34711 -0.27563 0.26508 0.12219 0.034 0.44999 -0.10695 -0.035064 0.052705 0.14496 0.13054 -0.5271 -0.056049 0.12238 0.25948 -0.075927 0.3804 -0.22118 -0.19455 0.7086 -0.54254 -0.064778 -0.3897 -0.41507 -0.1427 0.10888 0.28071 0.27746 0.21529 0.032236 0.35625 -0.38632 0.82034 -0.52109 -0.18378 1.4136 -0.49358 0.24303 0.07126 0.55465 0.021888 0.031213 0.18427 0.16434 -0.56644 0.056023 -0.11137 -0.086984 -0.45525 0.2369 -0.22225 0.084608 0.33514 0.19973 0.44655
stinks 0.24868 0.15839 0.19299 -0.198 0.018299 -0.051632 -1.1197 0.18878 -0.36468 -0.39022 -0.0818 0.18865 0.36648 -0.66749 -0.092661 0.18693 -0.31276 -0.1323 -0.42197 -0.2803 0.27543 -0.1398 0.74769 0.47358 -0.1597 -0.19927 -1.0333 0.099205 0.94629 -0.00080371 -0.38785 -0.17342 -0.057747 -0.30428 -0.10562 0.47388 -0.31171 -0.029101 -0.24402 0.26683 0.098898 -0.06042 -0.51543 -0.040434 0.77918 0.61265 0.38788 -0.18424 -0.39447 0.22698 -0.27724 0.011668 0.20527 -0.31989 0.28003 -0.42306 0.035405 -0.0036256 -0.065111 0.014351 -0.40302 0.056444 0.14006 0.11176 0.29653 0.25197 0.3659 -0.40506 -0.183 0.29515 -0.1806 0.19344 -0.19448 -0.037717 0.048121 0.42067 0.89759 -0.27901 0.15611 0.13303 0.16331 -0.69727 0.31162 0.22154 0.29288 0.11765 -0.079134 0.79562 -0.45101 -0.088187 -0.08606 0.17596 -0.10817 0.34621 0.0029561 -0.37257 0.61479 -0.53517 -0.080872 0.055821 0.25194 0.36403 -0.3155 0.35341 -0.40553 -0.042284 0.059361 0.081484 -0.053045 0.044871 -0.38854 -0.29451 -0.30259 -0.6481 -0.11538 0.089136 -0.094452 -0.10271 0.67772 0.092977 -0.53964 -0.30355 0.5232 0.3548 0.50103 0.00033923 0.64723 -0.29221 0.90795 -0.097359 -0.026383 0.11572 0.32828 0.24868 -0.41488 -0.27297 0.2773 -0.15836 0.49632 0.34737 -0.10569 0.032073 -0.065575 0.054448 0.17387 -0.19641 -0.18799 0.27205 -0.0082233 -0.4234 -0.12416 -0.14978 -0.26222 -0.33802 -0.11579 -0.23877 -0.43017 -0.098091 -0.37526 -0.21095 0.062605 -0.38042 -0.36728 -0.33088 0.40972 -0.083283 0.01917 0.64664 0.17918 -0.20208 0.16761 -0.010078 0.013849 -0.02193 0.063065 -0.13071 0.30624 0.13247 -0.15571 -0.072239 -0.14822 0.064469 0.26837 -0.031742 0.28108 -0.22493 -0.30309 -0.34562 0.40599 0.49883 0.25303 0.04781 -0.1453 -0.79731 0.40549 -0.24669 0.45727 -0.12031 0.2813 0.068677 -0.42498 -0.24165 -0.40598 -0.027437 -0.042535 -0.14867 0.58983 0.061466 0.1169 0.7002 0.40005 0.037845 0.32335 0.0041031 0.36406 -0.09879 0.14513 0.24708 -0.21076 -0.30495 0.23079 -0.016026 -0.23077 -0.68184 -0.581 -0.33909 0.26736 0.19633 0.35051 -0.28448 -0.33161 0.31748 -0.32157 -0.91312 -0.41569 -0.1266 0.15088 -0.084552 -0.2682 0.053972 0.5358 0.25075 -0.42607 0.38718 -0.011861 0.09269 0.0027148 -0.15481 0.52562 0.34246 -0.20514 0.49054 0.18912 0.067822 -0.13222 -0.26577 -0.39191 -0.053494 -0.033445 0.26354 -0.28149 0.19202 0.10824 -0.34824 0.071906 0.34705 -0.59876 -0.64092 -0.66668 0.12468 0.18612 0.74433 -0.41043 -0.14895 -0.51496 -0.12553 -0.054336 0.17048 -0.71015 0.27408 0.81804 -0.42975 -0.33212 0.054502 0.39153 -0.082882 -0.044627 0.32285 0.22625 -0.22649 0.32246 0.14921 0.052161 0.32138 0.52167 -0.15192 -0.15511 0.15261 0.17223 0.123
looking -0.18725 0.017083 -0.25955 -0.40554 0.041743 -0.11746 -3.463 -0.52596 -0.015814 -0.42853 -0.24139 0.091739 0.26355 0.086357 -0.12807 0.12364 -0.25528 0.04162 -0.24241 0.11204 -0.49128 0.030231 0.16676 0.26332 -0.24474 -0.30302 0.19968 0.38543 -0.021521 -0.24166 -0.39466 0.25812 0.27332 -0.42157 0.23993 0.26027 -0.37423 0.083229 0.17001 -0.11072 0.17548 -0.10654 0.44174 -0.12032 -0.42687 0.13753 -0.019141 0.08704 0.40411 -0.029967 0.36808 0.20557 -0.25403 -0.0094777 0.34071 0.044417 0.19119 -0.57919 -0.023878 0.36899 0.16076 -0.5239 0.085523 0.24049 0.10319 -0.040496 -0.28251 0.3113 -0.20074 -0.39995 0.01732 -0.26849 -0.72465 -0.27605 0.43618 -0.39036 0.23059 0.11419 0.081988 -0.2116 0.27192 -0.42524 -0.39445 0.025167 0.064542 0.0059598 0.36534 -0.16775 0.087118 0.18791 -0.18545 -0.1999 0.013325 -0.066811 0.13989 -1.0345 -2.2224 0.086007 -0.17816 0.2523 0.16659 0.1374 -0.046389 -0.23566 0.173 0.0073943 -0.0070632 -0.17186 0.39463 -0.20896 -0.36602 -0.069058 0.093223 0.32358 -0.40991 0.1531 0.090786 0.11395 0.37775 0.00014867 -0.055071 0.21142 0.26672 0.08645 0.20117 -0.18684 -0.16153 0.19354 -0.018743 -0.16627 -0.23372 0.10271 0.10545 -0.47422 0.069074 -0.19994 0.42617 -0.49706 0.012689 0.64616 -0.042083 0.30842 -0.25455 -0.06858 0.022351 -0.1192 -0.98063 0.13532 0.060944 0.18602 0.18994 -0.12381 0.32217 -0.23152 0.26443 -0.23422 -0.10372 0.14669 -0.092803 -0.29754 0.11758 -0.028718 -0.18985 -0.065595 0.14312 0.34036 0.22058 -0.31606 -0.21214 -0.044974 -0.35408 0.034855 0.058244 -0.21067 -0.31859 -0.14323 -0.13886 -0.14979 0.2637 0.39924 0.28504 0.070281 -0.066734 -0.25681 -0.36896 -0.096807 0.39554 -0.16711 0.2688 -0.18546 0.15808 -0.29296 0.090395 -0.062424 0.065005 0.16067 0.098431 -0.13827 0.28885 -0.095725 0.14671 -0.10712 -0.24579 0.020124 -0.14127 -0.021124 -0.060823 -0.37331 0.68924 -0.17986 -0.079324 -0.21297 -0.2139 -0.1697 -0.021236 0.29814 -0.40759 -0.23919 0.20776 -0.20522 -0.012442 0.06848 -0.18334 0.027666 -2.7084 -0.33185 0.20438 -0.47962 -0.32212 -0.2265 -0.1661 -0.19142 0.051528 0.090865 -0.19775 0.058673 -5.4218e-05 0.016789 0.049669 -0.22781 0.1946 -0.14008 0.022556 0.23525 0.00565 0.051676 -0.24781 0.30866 -0.17185 0.0021534 0.37739 0.2269 0.11852 -0.12758 0.36517 -0.55031 0.14446 0.029817 0.071337 0.11581 -0.32971 -0.067189 0.10842 -0.027841 -0.093057 0.16859 -0.36614 0.28064 0.41933 0.77275 -0.015599 -0.062767 -0.073522 0.1217 -0.18998 0.17556 -0.20707 0.011345 -0.21077 -0.05301 0.6353 -0.15703 0.28481 -0.25613 0.21122 0.14275 -0.10252 0.49561 0.18101 -0.31329 -0.57129 -0.12635 -0.10824 -0.094919 0.49557 -0.081166 -0.18308 -0.14819 0.36277 -0.64551
brilliant -0.22366 0.01999 -0.27749 0.043351 0.20043 -0.044593 -2.5612 -0.52847 0.15906 -0.38758 -0.23911 -0.51131 -0.076523 -0.040971 -0.32953 -0.26555 -0.54178 -0.026055 -0.61762 -0.21958 0.040594 0.32864 -0.12097 0.1022 0.24198 0.5441 0.34434 0.51273 -0.0047597 0.13587 0.76251 0.26742 -0.11047 0.075556 0.080802 -0.38151 -0.095958 0.26719 0.0013804 -0.35795 0.067617 0.095908 -0.12627 -0.35988 0.15261 0.16127 0.071381 -0.46561 0.30481 -0.43717 0.14524 0.29273 0.0013025 -0.057121 -0.35035 -0.10981 0.26004 -0.59151 0.52614 0.40633 0.13208 0.25693 0.69399 0.41963 -0.48629 -0.3014 -0.52734 0.12003 -0.31314 -0.23619 -0.22294 -0.24343 -0.49203 -0.021054 -0.63086 -0.52018 -0.24787 -0.32517 -0.48609 0.013743 0.040718 -0.557 0.02964 -0.12275 -0.46616 -0.17304 0.25043 -0.23436 -0.24474 0.2305 0.044067 0.45662 -0.12352 0.0064297 0.226 -0.10109 -1.7366 0.057703 -0.10614 0.034711 0.12806 -0.49133 0.29878 0.20019 -0.11601 -0.036759 -0.05492 0.010711 0.10662 -0.20899 -0.35652 0.17682 -0.29434 -0.51446 -0.15412 0.33034 0.65233 -0.088291 0.3077 0.0009321 -0.16881 0.054983 0.082647 0.070605 0.093444 0.054845 -0.18722 -0.25715 -0.077466 0.0561 -0.11947 -0.17728 0.3377 -0.34868 -0.45189 -0.41682 0.2497 -0.20841 0.19678 0.58863 -0.019896 0.5671 0.16232 -0.035947 -0.3495 0.14824 -0.42677 -0.27262 0.37211 -0.054762 0.54196 0.30698 -0.045414 0.16535 -0.40935 0.76908 0.29891 -0.12878 -0.16382 0.37477 0.25503 0.11631 0.38336 -0.11169 -0.09524 0.1419 -0.42511 0.1358 0.037348 0.056665 0.22486 0.37145 -0.16783 -0.58947 -0.11328 -0.032818 0.046317 -0.35464 0.15023 -0.14418 -0.082292 -0.33903 -0.067097 0.10839 0.33348 -0.25544 0.023527 -0.019062 0.51965 0.37051 0.085466 -0.016815 -0.31664 0.34852 0.0035422 0.82793 0.012056 -0.26125 0.26204 -0.13469 -0.23462 -0.037391 0.41019 -0.18548 -0.9952 0.22512 -0.20731 0.58217 0.1421 0.23311 0.17382 0.40279 0.11097 0.011205 -0.13302 -0.21473 0.15732 0.20746 0.13257 -0.074771 0.27499 -0.30005 -0.22152 -0.13613 -1.6015 -0.56715 0.11647 -0.039963 -0.61478 0.1777 0.10922 -0.15522 0.10011 -0.4537 0.10096 -0.2436 -0.15326 -0.2026 0.13571 -0.40892 0.24384 0.16192 -0.49724 0.55892 0.10741 0.033283 -0.14244 0.69264 -0.26176 0.14245 0.04989 0.51619 -0.56763 -0.30843 0.14787 0.011071 0.29558 0.032394 0.1069 -0.23084 0.11989 0.35236 -0.13184 0.23463 0.26375 -0.28498 -0.074496 0.49896 -0.51358 -0.51046 0.098849 0.20938 -0.48447 0.028299 0.27744 -0.063214 -0.042692 -0.30552 -0.88988 0.21523 0.57721 0.27641 0.085214 0.16857 0.86004 0.22281 -0.044003 0.075593 -0.27836 0.30266 -0.3629 -0.30076 -0.038893 -0.40716 0.15151 0.040301 0.10885 0.26654 -0.20805 0.065778
under 0.15996 0.17379 -0.4054 -0.18041 0.073215 -0.15967 -3.1074 0.32078 0.070151 -0.1642 -0.025067 0.2861 -0.089356 -0.16714 0.43185 -0.084875 0.09834 0.29477 0.30681 -0.043454 0.42655 -0.01295 -0.67194 0.9436 0.24367 0.12498 0.38612 -0.69651 -0.024026 0.29763 -0.28784 -0.16136 -0.66237 0.26584 -0.16358 -0.3237 -0.034883 0.040026 0.27319 -0.038306 0.21085 0.072042 -0.055233 0.16631 0.19751 0.27104 0.10386 0.0091985 -0.90297 0.16594 0.077967 0.39249 -0.38355 0.45213 0.36146 -0.16823 0.066665 0.075102 0.32707 0.57544 0.058872 -0.32108 -0.61356 0.10202 0.047104 0.36695 0.056543 0.69157 0.24651 -0.18418 -0.081381 0.49988 -0.21412 0.23404 0.28575 -0.31713 0.18062 -0.60227 0.32503 -0.29351 0.24227 -0.72385 -0.13269 -0.029468 0.20802 -0.076447 0.018437 -0.24024 -0.31322 -0.5778 -0.81669 -0.34427 0.081554 -0.22431 -0.034968 -0.042655 -2.605 -0.13867 -0.33407 0.010219 0.23995 0.023529 0.35662 0.2199 -0.87696 -0.15851 0.21218 -0.12578 -0.16408 -0.16009 0.041184 0.012222 0.098833 0.40555 -0.076115 -0.081281 0.24464 -0.24163 -0.067958 0.65468 0.052495 -0.1789 -0.54688 -0.75396 0.24485 -0.42731 -0.044532 -0.075033 0.17431 0.81542 0.33239 -0.0039481 -0.26164 -0.15474 -0.26 0.027773 -0.26672 -0.17362 -0.29085 0.5725 0.075812 0.10364 -0.31293 -0.097048 0.082514 0.088174 0.31437 -0.57774 0.63097 0.14757 -0.15105 0.35734 -0.27443 -0.66706 -0.20144 -0.60522 -0.13029 0.026853 -0.24674 0.42509 0.22334 -0.3131 -0.21375 0.38308 0.28762 -0.10852 0.33083 0.17037 -0.087341 -0.62888 0.19102 -0.27544 0.1463 0.47698 -0.086848 -0.43959 0.1782 0.40087 -0.099683 0.19384 -0.02034 -0.12076 0.18963 -0.075014 0.20221 -0.045464 0.11539 0.31377 -0.099023 0.1717 0.14837 -0.34391 0.13484 0.43884 0.16547 -0.33542 0.51927 0.093196 -0.44072 -0.59586 -0.27428 0.35216 0.064932 -0.044298 0.17598 0.41745 0.21636 -0.3546 -0.11177 -0.016405 -0.01082 0.042399 0.2126 0.25386 -0.25995 0.097879 0.097475 -0.089859 0.37804 -0.18527 0.06121 -0.36527 -0.29244 -0.1224 -3.1142 0.48612 -0.065025 0.1871 0.41662 -0.032501 0.22202 0.80401 0.31497 -0.097558 0.23479 -0.50601 -0.25827 -0.17166 -0.040737 0.22036 0.1086 0.49854 0.082792 0.25842 -0.092183 0.52706 0.19644 -0.046496 -0.13224 0.63291 -0.13422 -0.028612 0.072728 -0.1354 -0.24106 -0.098284 -0.0372 -0.1062 0.022558 0.15468 0.089812 -0.066177 0.17895 0.22306 0.44045 -0.28943 0.043784 0.17853 -0.24674 0.080202 -0.37276 -0.12755 0.054231 -0.035341 -0.29561 0.10645 -0.3208 0.055166 -0.08726 0.12481 0.19933 0.15703 0.017871 -0.19166 -0.28483 -0.085233 -0.026866 -0.05274 -0.057674 -0.046645 -0.35886 -0.04338 -0.29963 -0.48494 -0.60531 -0.4511 -0.46602 -0.074105 -0.34055 -0.10219
sorry 0.1921 -0.447 -0.11145 0.060633 0.22516 0.21238 -2.7607 -0.20484 0.50136 -1.0842 0.45924 0.16369 0.34833 -0.45189 -0.51689 -0.11046 -0.42145 -0.017511 0.44062 0.14242 0.77354 0.34489 0.38675 0.36647 -0.65878 -0.0064768 -0.20804 0.036951 0.57829 0.16279 -0.3067 0.10574 0.2104 0.29654 0.16548 -0.52615 -0.21651 -0.26308 0.14527 -0.0036967 0.2116 0.37536 -0.57183 0.094353 0.11072 0.34392 -0.037871 0.17023 0.43038 -0.42726 -0.093703 -0.10012 0.21626 -0.15208 -0.24422 -0.23364 0.22628 -0.21078 0.53946 -0.56528 -0.18793 -0.16239 0.4088 -0.25561 0.51211 0.48405 -0.091959 0.033287 -0.53649 -0.23231 0.13329 -0.38384 -0.069949 0.2361 0.51221 0.052795 0.16077 0.13525 0.36669 -0.34026 0.041517 -0.68805 -0.0046692 -0.084675 0.060249 -0.043087 -0.035151 0.42131 -0.12449 0.52633 -0.0034696 0.40106 -0.27965 -0.50442 -0.11127 -0.40713 -0.56142 -0.0055542 -0.43898 0.16004 -0.21272 -0.35517 -0.48517 -0.34696 0.13241 0.1301 -0.23181 -0.51965 0.75086 0.1005 -0.19798 0.13607 -0.2522 0.0653 -0.4222 0.58869 0.12484 -0.29994 0.094588 -0.25016 -0.18365 -0.40298 0.57145 0.15838 0.55824 -0.47329 0.33393 -0.11034 0.37422 -0.14608 -0.2167 0.31746 0.030658 -0.076159 0.12498 -0.10288 0.29335 -0.12019 -0.22758 0.58296 0.10918 0.26507 0.33987 0.013125 0.08861 -0.94963 -0.14827 0.18891 -0.47765 -0.38182 -0.3152 0.30073 0.05866 -0.098664 -0.43774 0.275 -0.24841 0.053385 0.017885 0.40128 0.22602 -0.32344 -0.42641 -0.019363 0.099271 -0.12971 0.17333 -0.068415 0.21643 0.030898 -0.083714 0.0056475 0.29891 -0.38464 0.14861 0.22619 0.043418 0.07466 0.17632 -0.26109 0.34668 0.15289 0.14921 0.064758 -0.26984 0.28983 0.21884 -0.28208 0.02322 0.34051 0.062502 -0.067701 0.23338 -0.38848 -0.040516 0.18276 0.25391 -0.54985 0.18087 -0.13722 0.072714 0.057847 -0.30912 0.099806 -0.29242 -0.024526 -0.14994 -0.22936 0.6765 0.26786 -0.012964 0.0044385 0.32626 0.33571 0.055731 -0.11576 0.010123 0.48259 -0.093726 0.07318 0.12865 -0.33417 -0.040006 -0.38159 -2.5641 0.37133 0.13287 0.38012 -0.063518 -0.45828 -0.55427 0.38932 -0.057964 0.42475 -0.38493 -0.20131 -0.21304 0.14231 0.17135 0.053322 0.19997 -0.021953 -0.40865 -0.036881 0.13592 -0.35081 -0.51824 0.44309 0.24153 0.010816 -0.011993 0.34851 -0.35321 0.052108 0.24379 -0.052713 0.18542 -0.09993 -0.099057 -0.14431 -0.50309 0.28898 -0.16158 -0.31093 -0.26778 0.13094 0.20156 0.21311 -0.0050046 -0.037918 -0.17586 -0.1737 -0.37006 -0.13497 -0.13969 -0.13639 -0.34357 0.10293 0.22671 0.019856 0.66339 -0.27864 0.11528 0.46215 0.25771 -0.17454 -0.32378 0.47991 -0.3381 0.19355 4.3592e-05 0.1233 0.11451 -0.16962 0.29721 0.076348 -0.26293 -0.27221 0.020876 -0.22301
every -0.11893 0.60657 -0.14513 -0.025919 0.093205 0.45925 -4.1256 0.23096 -0.33067 -0.12125 -0.12977 -0.073553 0.14071 0.19024 0.2492 -0.29695 0.087538 0.1246 -0.063201 0.44701 -0.13552 -0.30357 0.030811 -0.27633 -0.19346 -0.0046984 -0.42261 -0.049545 0.17955 0.065691 0.0068536 -0.23089 0.32973 -0.15115 -0.23919 0.27046 -0.22826 0.29552 0.074634 -0.25037 -0.27109 -0.096521 0.079787 -0.73951 -0.033824 -0.030465 0.12535 0.035819 -0.46309 0.32935 -0.048133 -0.095283 0.14327 -0.25601 0.024706 -0.43441 -0.076589 -0.097575 -0.12114 0.30521 -0.15912 0.15132 0.00065967 0.13431 -0.41161 0.11753 0.12555 0.71739 0.14998 -0.037609 -0.39496 0.2556 -0.019144 0.20397 -0.44516 0.19143 -0.2467 0.16602 -0.42027 -0.43403 -0.14293 -0.27625 -0.10918 -0.4086 0.14174 -0.52705 0.38288 0.066417 -0.1353 0.027138 -0.10627 -0.0018329 0.45333 0.083838 -0.18893 -0.12213 -2.2608 0.22772 0.065331 -0.052698 -0.35447 0.22971 0.44104 -0.03923 -0.20715 0.14882 -0.046943 -0.057527 -0.33242 -0.37271 0.12614 -0.091082 0.32603 0.19763 0.15184 0.34213 -0.098128 -0.01933 -0.054466 0.10669 -0.19124 0.1524 0.21295 -0.2029 0.36152 -0.071535 0.69914 -0.025512 -0.14312 0.14987 -0.21458 -0.076715 -0.23284 -0.29308 -0.010078 -0.50289 -0.36417 0.17358 0.13199 0.23557 0.29801 0.3545 0.42214 -0.064998 -0.2515 -0.14419 0.052151 -0.29313 0.037628 0.033807 -0.12034 0.23612 0.28989 0.020124 0.11076 -0.21351 -0.090823 -0.14211 -0.35287 -0.1246 0.14742 0.18308 0.18421 -0.12739 0.13841 -0.08352 0.0095279 0.080501 0.03005 0.39219 0.043421 -0.18303 -0.041046 -0.15618 -0.028912 -0.46669 0.27219 0.059444 0.095603 -0.52358 0.64388 0.13126 -0.091872 -0.096389 -0.16266 -0.39548 -0.22329 0.17459 0.46499 0.45725 0.13925 0.29335 0.045051 0.26437 0.33395 -0.30121 0.41154 -0.14679 -0.15013 -0.32307 0.03306 0.316 -0.04514 0.39849 0.47879 -0.12747 0.44511 -0.039735 0.13421 0.3743 -0.12139 0.12525 -0.023958 0.099303 -0.22766 0.23188 -0.04995 -0.23117 -0.5021 0.25956 -0.05912 0.50919 -0.2634 0.0857 -2.8801 -0.045668 -0.057604 0.093012 -0.48788 0.024702 -0.225 -0.11175 -0.063391 -0.21472 0.12752 -0.17735 -0.19098 -0.26555 0.055326 -0.066947 0.0042545 0.066228 -0.50402 0.71652 -0.36192 -0.42939 -0.12596 0.067232 0.23517 -0.060864 -0.0090502 0.056329 0.056266 -0.22093 0.024816 -0.048455 -0.14465 0.21385 -0.20946 -0.27314 -0.18064 -0.233 -0.15169 -0.43894 0.22617 -0.1693 -0.22743 -0.00076982 0.39285 0.20256 -0.012029 -0.56542 -0.3162 -0.043651 -0.21545 -0.20401 0.15955 -0.32214 -0.13219 -0.30597 0.55662 -0.17009 -0.28303 -0.19025 0.1497 -0.035065 0.29129 -0.11415 -0.10495 0.16722 0.22776 0.045103 0.093218 -0.27096 -0.28392 0.14072 0.033753 -0.16977 -0.30986 0.30737
school 0.72297 -0.11473 -0.14812 -0.14546 -0.20338 -0.35471 -2.6264 -0.40722 -0.26894 0.46712 0.72528 0.16392 0.13083 -0.83487 -0.14762 -0.34899 0.30055 0.29023 0.12164 -0.13025 0.015957 0.26422 0.22673 -0.18321 -0.1304 -0.0065329 0.59317 0.11318 -0.11956 -0.19343 -0.6799 -0.15722 -0.43623 0.48977 -0.54144 0.42756 -0.043863 0.34139 -0.12572 -0.25566 -0.48164 0.25177 0.42348 -0.37733 -0.09762 -0.26171 0.35926 0.1231 0.23869 -0.1221 -0.37556 0.48681 0.46168 0.45737 0.22374 -0.326 0.13647 0.25107 -0.36912 0.46828 -0.40401 -0.025581 0.10459 -0.14906 -0.35001 0.63493 -0.40074 -0.38804 0.43799 -0.080969 -0.31634 0.1051 0.27807 -0.59548 -0.021783 -0.19966 -0.28984 -0.56583 -0.29415 -0.073335 0.19075 -0.70368 -0.24829 0.16529 -0.39737 -0.17336 0.093296 -0.36475 0.6251 0.050371 0.099514 0.032905 -0.097051 0.056168 -0.28623 -0.11409 -2.8806 0.0744 0.11368 0.18093 -0.025867 -0.48384 0.12389 -0.24714 0.36059 0.079327 0.30627 -0.19951 -0.19089 0.40581 -0.19997 0.3899 0.26644 0.97987 0.68647 0.30596 -0.58817 0.42199 0.82844 0.34288 -0.44195 0.57991 0.17719 -0.039198 -0.10447 -0.0073382 0.96587 -0.18234 0.46218 0.40722 0.95893 0.34594 -0.29294 0.20318 0.096783 0.039678 0.47717 0.10158 -0.12295 1.1051 0.52721 -0.56786 -0.78155 0.65914 0.02696 0.061559 -0.015345 -0.32901 -0.30505 0.26081 -0.50557 0.2947 0.82183 -0.1702 -0.63763 -0.88742 -0.19871 -0.37285 -0.27445 -0.30434 -0.22605 0.48678 -0.31035 -0.15162 -0.036818 0.22074 0.026024 0.57997 0.1449 -0.20312 0.47567 0.11217 -0.20664 -0.44552 0.07378 0.07334 -0.07515 -0.10333 -0.22311 -0.48981 -0.46877 0.92065 0.51772 0.30061 -0.27013 0.12223 -0.46787 -0.38858 0.018221 -0.1243 0.055735 -0.11154 -0.16105 -0.23843 -0.33154 -0.55818 -0.74972 0.26328 0.022273 -0.036934 -0.001946 -0.17663 0.42346 0.40942 -0.3496 -0.35565 0.41887 0.1307 0.30864 -0.0073111 0.16063 0.58002 0.022561 -0.14932 6.3293e-05 0.16951 -0.13396 0.30648 -0.21263 -0.022499 -0.52855 0.18506 -0.36385 -0.20766 -3.4155 -0.13443 -0.28106 -0.12016 -0.22238 -0.010775 -0.25615 0.30294 -0.065267 -0.14894 -0.29536 -0.013816 0.1814 -0.075633 0.35944 0.49618 -0.18434 0.065475 -0.37643 0.78405 -0.13792 0.42403 0.37562 -1.0355 -0.37485 0.087239 -0.28222 0.14585 0.37535 0.30478 -0.048483 -0.15594 0.48764 -0.047856 0.45621 -0.11785 -0.16496 0.52754 -0.041314 -0.24411 0.17308 0.0075691 -0.29491 -0.224 -0.19575 0.23074 0.11608 -0.11131 -0.52871 0.58275 -0.1145 0.10229 -0.049937 -0.088516 -0.12599 0.47752 0.121 -0.049249 -0.24281 0.10257 -0.19037 -0.008388 -0.1076 0.36226 0.16586 0.11196 0.60664 0.31153 -0.36033 -0.23229 -0.047996 0.449 -0.0078865 0.22405 0.31343 0.19459
frozen -0.52842 -0.25354 0.007371 -0.29867 0.097795 -0.49783 -2.043 -0.057236 0.019922 -0.1105 0.20758 -0.51778 0.00011539 1.0555 0.1894 -0.32079 -0.34545 -0.11127 0.16726 -0.53826 -0.28296 0.42755 0.26271 -0.14854 -0.32627 -0.31123 0.12586 -0.49955 -0.3001 -0.039542 0.17691 0.52701 -0.23174 -0.097136 0.70304 0.22731 -0.29939 -0.02159 -0.078879 0.087222 0.22443 0.044782 0.2244 0.12803 -0.077013 0.35028 0.18647 0.031726 -0.91489 -0.51932 -0.13254 -0.1833 0.022918 0.79443 0.44059 0.040958 -0.18758 0.16141 0.10722 0.26493 0.097055 -0.13136 -0.28629 0.26497 0.24854 -0.27187 0.19908 -0.63142 0.10218 0.32253 -0.18711 -0.18203 -0.88676 -0.44789 0.23518 0.49286 0.10759 -0.33631 0.30355 0.35607 -0.81405 0.36315 0.32938 0.38089 -0.81079 -0.04122 -0.75605 0.49064 -0.20728 -0.1356 0.64415 0.1059 -0.6288 -0.0036392 0.31378 -0.71062 -0.89328 -0.3197 -0.13681 0.30038 -0.67327 -0.31212 1.0638 0.37961 -0.59891 -0.38703 0.17374 -0.54159 0.30191 0.083438 -0.021718 0.5912 0.59342 -0.084842 0.10338 -0.087105 0.046045 -0.057882 -0.060115 0.11201 0.56936 -0.33674 -0.031674 0.77822 -0.23316 0.26108 0.050419 0.27286 -0.41687 0.2044 -0.63761 0.03096 0.2256 -0.17988 0.75045 0.40029 0.18166 0.066278 0.72095 0.28754 -0.24694 -0.28298 -0.39537 -0.066407 0.36993 -0.84528 0.12794 -0.58132 0.42062 -0.34529 -0.069337 -0.088691 -1.0046 -0.29416 0.44207 -0.00073174 -0.075866 -0.097585 0.12575 -0.12343 0.17493 -0.21065 -0.15566 0.33495 -0.27966 -0.46882 0.82625 -0.098177 -0.2404 0.52579 -0.59249 -0.42823 0.11713 0.68429 0.4151 0.43948 -0.25937 0.33969 -0.29339 0.23488 -0.29882 -0.60769 -0.35631 0.075087 0.49237 0.089994 0.11921 0.75342 0.64624 0.63221 0.014635 0.47295 -0.36472 -0.19011 0.42415 0.23143 0.67717 0.29625 0.39619 -0.01521 -0.58748 -0.29717 0.11455 -0.14085 0.013799 -0.16125 -0.5426 -0.34087 -0.13835 0.56356 0.17569 -0.088143 0.61695 -0.37834 -0.31615 -0.20894 -0.47376 -0.11451 -0.57922 0.042053 0.0063854 0.81856 0.1604 0.38486 -2.3038 -0.098181 0.99516 -0.041705 -0.0056322 0.11279 0.39823 0.010968 -0.44306 0.46411 0.16424 -0.43375 0.042059 0.00094133 -0.25971 0.16508 -0.2134 -0.038264 -0.26969 0.78217 -0.19791 0.20694 0.36905 0.086105 -0.0023968 0.29447 0.30047 0.42242 0.0022803 -0.10073 0.29788 -0.3034 -0.32272 0.15159 -0.00010281 -0.025974 0.0016516 -0.4621 0.3507 -0.65863 -0.04423 0.55158 0.17039 0.22609 -0.41348 0.2551 -0.2997 -0.54299 0.21503 0.097261 0.57328 0.17306 -0.31075 -0.26622 -0.25951 -0.2657 1.2172 -0.25929 0.076764 0.30577 -0.59858 -0.47155 0.38388 -0.32508 0.59658 -0.14583 -0.36015 -0.25557 0.15176 -0.31452 0.20061 -0.16143 -0.29879 -0.46743 -0.16226 0.12927
ups 0.45761 -0.011873 0.52906 -0.14966 0.45287 0.23575 -2.343 0.12732 -0.51995 -0.75615 0.17271 0.12766 0.41594 0.14554 -0.33161 -0.59502 -0.2144 0.08728 -0.40125 0.30421 -0.037507 0.46049 0.24266 0.30069 0.58143 -0.050512 0.29255 -0.49319 0.037874 0.19732 -0.60151 0.25266 -0.077866 -0.46478 -0.80853 0.045999 -0.44427 -0.42965 -0.47697 0.32462 0.040635 -0.043084 -0.20825 -0.25089 0.51006 0.24457 -0.11634 -0.39106 -0.59942 -0.26447 0.10758 -0.2113 -0.23502 -0.0096766 0.23664 -0.063899 -0.095451 -0.62267 -0.33834 -0.071658 -0.019669 0.20327 -0.3925 0.37747 0.36953 -0.21637 -0.16494 -0.10031 -0.16603 -0.42414 0.45629 -0.045295 -0.31134 0.080425 0.44969 1.0779 0.62251 0.16497 0.193 0.051794 0.57594 0.16096 -0.16758 0.48195 -0.19864 -0.13662 0.45956 0.090987 -0.40947 0.2874 0.22598 0.067143 -0.21167 -0.17346 0.22043 -0.19329 -1.3188 0.09813 0.29522 -0.17952 0.025493 -0.33321 0.48737 0.031503 -0.022031 0.097762 0.46514 0.28823 0.036419 0.58028 0.15748 -0.064881 0.35287 0.16694 0.67743 0.24806 -0.10611 -0.16974 -0.39454 0.28981 0.18172 0.16073 0.29991 -0.068609 0.14437 -0.0069713 -0.48758 -0.037149 0.17345 -0.65466 -0.45044 -0.28506 0.14396 -0.22952 -0.34336 0.090704 -0.31257 0.34078 -0.43161 0.13999 0.065129 0.012289 0.069575 -0.48871 0.77419 0.16614 -0.49281 -0.32822 -0.45711 -0.0070435 -0.15269 0.39 -0.029898 -0.26417 -0.29678 -0.45274 -0.34333 0.46179 0.34725 0.26553 -0.37761 0.14453 -0.011004 -0.26344 -0.42563 -0.31446 -0.066033 0.15947 -0.0093126 -0.040605 -0.097189 0.16588 -0.43501 0.26952 0.012823 -0.32883 -0.2483 0.29721 -0.22389 -0.006474 0.36118 -0.11121 0.0071074 0.4931 -0.61824 -0.26508 0.27678 -0.32018 -0.056637 -0.15173 0.28338 0.46501 -0.016212 -0.3057 -0.020727 0.16937 0.1586 -0.043525 -0.72574 0.31873 0.3817 0.25889 0.18009 -0.010956 -0.37499 -0.30243 0.20591 -0.82747 -0.30124 0.29862 0.039543 0.051486 -0.51875 0.1719 -0.23882 -0.054174 -0.41464 -0.11736 -0.2231 -0.020854 0.26734 0.1188 0.19231 0.034855 -2.0549 -0.2841 0.28452 0.41754 -0.19555 0.44356 -0.06908 -0.76543 -0.37409 0.13709 0.022562 0.23319 0.4329 0.47094 0.14255 0.036024 0.57139 -0.26465 0.17567 0.11605 -0.282 -0.015361 0.095267 0.51296 0.013279 -0.022669 -0.33435 0.26616 -0.33786 -0.16666 0.17809 -0.28078 0.13027 -0.33405 -0.50804 -0.26931 0.12544 -0.45046 -0.14997 -0.52284 0.13946 -0.31817 0.088483 0.16522 0.3165 -0.33774 -0.10268 -0.016777 0.14658 -0.62081 -0.11397 0.18977 0.11938 0.069301 0.089703 -0.26136 -0.18482 0.091806 -0.30634 -0.068786 0.13216 -0.15665 0.3913 -0.49129 -0.66249 0.0014691 0.29693 0.21427 0.19061 0.16296 -0.23866 -0.35725 -0.16855 0.13483 -0.33549 0.22833
enjoy -0.16415 0.19499 0.024766 -0.30327 0.27522 0.04674 -3.4238 -1.0761 0.17588 -0.74525 0.29007 -0.28531 0.76234 0.19503 -0.002714 0.022053 0.14344 -0.15189 0.15568 0.044141 -0.035666 -0.11775 0.12081 -0.19396 -0.066407 0.010353 -0.013843 -0.076908 -0.09261 0.31456 -0.023549 0.33324 0.22758 0.42108 -0.19686 -0.61482 0.0026265 0.038734 -0.24997 0.15643 -0.036414 -0.10307 -0.29501 -0.22466 0.12452 0.051108 -0.037008 0.12738 0.36357 -0.32094 0.047286 0.56716 -0.020303 0.0054997 0.16976 0.18236 -0.092539 -0.75686 0.099278 0.38698 0.42801 0.14459 0.51511 -0.24558 -0.40191 -0.52139 0.086629 -0.22961 0.12786 -0.068126 -0.026836 0.036656 -0.011547 -0.18142 -0.25458 -0.17371 0.29572 0.3759 0.42943 -0.12547 0.0082926 0.90906 0.56327 0.085346 0.072586 0.51943 0.45084 -0.05886 -0.11845 0.19709 -0.12268 0.29112 0.22777 0.48072 -0.67356 -0.34358 -1.8923 0.078457 0.12907 0.22855 -0.42519 -0.13764 0.20527 -0.18205 -0.082332 0.0045822 0.017805 -0.87153 0.22772 0.25974 -0.042127 -0.062199 -0.15427 0.24512 -0.52834 0.21577 -0.039255 -0.0032393 0.26018 0.10126 0.30507 -0.046136 0.32769 -0.16367 0.18521 0.81433 0.01075 0.32668 -0.010216 0.263 -0.57584 -0.0016412 0.25727 -0.049248 0.06377 0.16616 0.23073 -0.66203 -0.10749 0.28787 -0.17701 -0.026764 0.46527 -0.17009 -0.256 0.03978 -0.10069 -0.1387 0.56676 0.024782 0.27707 0.0019554 0.13097 0.44085 0.12748 0.26184 -0.20663 0.19639 -0.15464 0.3965 0.52891 -0.084819 0.23953 -0.0024965 0.18226 0.56864 -0.19419 -0.095446 0.27201 -0.0058572 0.19396 0.14887 0.17159 -0.46022 -0.11868 -0.16009 0.0064625 -0.013443 -0.16115 -0.11611 0.49895 0.41954 -0.52488 0.056469 0.28805 0.13972 -0.28619 0.48313 0.33283 -0.44979 0.0057826 -0.23311 -0.53565 0.04311 0.20051 -0.33496 0.27002 -0.050853 0.026129 0.21747 -0.10025 -0.48301 0.00080533 -0.037838 -0.21938 0.045217 0.1099 -0.1862 0.00054898 0.23684 -0.25714 -0.16761 -0.036901 -0.33442 -0.0037808 -0.15901 -0.4652 0.043656 -0.49709 -0.17795 0.19948 -0.27954 -0.32293 0.083572 -2.7137 -0.28931 0.15766 0.23464 -0.12183 -0.2882 0.26455 -0.027128 -0.4544 -0.064363 -0.41257 -0.39161 0.056427 0.20568 0.40584 0.58241 -0.27315 -0.38179 -0.32093 0.46472 0.016507 0.0047665 0.072188 0.18932 0.19733 0.1214 0.19698 -0.049202 0.072612 -0.32138 0.082355 -0.29206 0.3648 -0.057217 -0.3685 -0.39225 -0.04933 -0.2146 0.31056 0.013182 0.42141 -0.017757 -0.59045 0.46006 0.50789 0.46946 -0.33962 0.46073 -0.34091 -0.26687 -0.021386 -0.033696 0.21201 -0.15475 -0.1757 -0.013598 0.054261 -0.083177 -0.6668 -0.048973 -0.051576 0.40476 -0.18338 0.28198 -0.19166 -0.45574 -0.038614 -0.064181 -0.39055 -0.16347 0.16081 0.40103 0.0077172 0.015348 0.16879 0.22005
tired -0.45658 -0.052214 -0.33494 -0.37536 -0.4807 0.27666 -2.8693 -0.62326 0.41027 -0.66465 1.1333 -0.011194 0.025006 -0.18028 -0.14361 0.30064 -0.48358 0.33504 -0.076499 -0.03709 -0.47706 -0.24862 0.032558 0.14318 -0.47904 -0.076524 -0.14416 -0.067438 0.47652 -0.078891 -0.65071 0.19169 0.61072 0.22942 0.21346 -0.12064 -0.54221 -0.082303 -0.09183 0.11869 0.24739 0.092375 -0.10536 -0.25705 0.28758 0.26015 0.21386 0.043963 0.043382 -0.1393 0.32088 -0.32668 0.056604 -0.20015 0.034602 0.10634 0.054925 -0.050169 0.85164 0.26103 0.12758 -0.076218 0.0021032 -0.25151 0.11977 -0.17654 -0.47957 0.38827 -0.2499 -0.35834 0.068742 -0.25664 -0.45455 0.29023 0.45006 -0.09861 0.2397 0.099757 -0.031948 -0.00066549 0.55093 0.10977 -0.10845 0.028478 -0.13985 0.22523 0.3247 0.35745 -0.16888 0.40906 0.22069 0.47466 0.36929 0.011088 0.096714 0.14044 -1.0293 0.0027122 0.044905 0.46572 0.012113 0.081204 -0.72516 0.070256 0.30759 -0.20348 -0.29705 -0.41203 -0.15821 -0.23269 0.16238 0.21958 0.42267 0.14684 -0.25992 0.074359 -0.3885 -0.69108 -0.31841 -0.22238 -0.017294 0.022474 0.23746 0.36681 0.041823 -0.037873 0.66178 -0.38816 0.4674 0.0054444 -0.74014 0.37195 0.52292 0.0069734 -0.46586 0.012224 0.28948 0.18673 0.14746 -0.20909 0.20519 -0.089319 0.050494 0.56061 -0.12742 -0.26503 -0.68112 0.5147 -0.37235 -0.020792 0.061625 0.14625 -0.37612 -0.69287 -0.3111 0.18093 -0.10296 -0.026162 0.242 0.26566 -0.044949 -0.039526 -0.092961 -0.020336 -0.034254 0.0067539 0.31696 -0.10508 -0.049836 -0.47346 -0.57602 -0.23349 -0.14541 -0.4251 -0.14035 -0.31099 0.021761 0.39165 -0.31988 0.058223 0.60943 0.31317 0.51517 0.05589 -0.5934 -0.32351 0.1519 -0.18947 0.12423 0.47532 0.30637 0.13609 -0.43268 0.2249 -0.28502 -0.41099 0.25409 -0.62585 -0.31422 -0.28767 0.35157 0.35781 0.22407 -0.25205 -0.25412 -0.30648 0.05516 -0.35299 0.55859 0.25955 0.14281 0.37978 -0.063352 -0.47249 -0.11466 -0.3479 -0.44303 0.54298 0.15395 -0.48897 0.3802 -0.20522 -0.23428 0.0093837 -1.8346 -0.16244 0.20881 0.43986 -0.43275 -0.70171 -0.58209 0.53681 -0.013621 -0.17014 -0.075073 -0.049572 -0.085902 0.41112 0.25947 -0.061823 -0.055443 0.33847 -0.3612 0.22872 0.10239 -0.14517 -0.1667 0.21161 0.098097 0.080583 0.66656 0.46681 -0.16859 0.33949 0.14528 -0.42635 -0.076301 0.031196 0.12754 -0.2221 -0.38754 0.066655 0.1699 -0.16632 0.11581 0.60825 0.088278 -0.068554 0.23618 0.54432 -0.23634 -0.28897 -0.69606 -0.64385 -0.28961 -0.17495 -0.052553 0.12193 0.15504 -0.26802 1.099 -0.55074 0.29105 0.27032 0.036051 -0.25501 -0.03055 0.35509 -0.10439 -0.47901 0.38488 -0.090763 -0.050507 -0.33605 -0.1293 0.15809 0.026562 0.039095 -0.0063971 -0.32442
budget 0.055017 0.14686 0.56375 0.20471 -0.35689 -0.47036 -2.8424 0.20412 -0.36312 0.59884 -0.15025 -0.25622 -0.094293 0.43392 -0.26163 0.15205 -0.12417 0.084237 -0.20913 -0.0158 0.45494 -0.04867 -0.31482 0.45224 -0.72963 0.013022 -0.25835 -0.041379 -0.29461 0.0036729 -0.17784 -0.080834 0.55744 -0.20862 0.040441 0.74136 -0.36499 0.22972 -0.22275 0.24494 -0.10069 0.25506 0.33169 0.4265 -0.2385 0.31773 -0.32884 0.56947 -0.52333 -0.19607 -0.14492 0.15806 -0.27639 0.27989 0.79824 -0.11782 -0.023293 0.21736 -0.15502 0.18489 0.16276 -0.65431 -0.25032 0.11021 -0.034034 -0.10674 0.21104 0.036662 -0.093958 -0.2544 -0.35255 -0.047306 0.10127 -0.47459 -0.01107 0.0061915 -0.1193 0.26398 -0.44658 0.27083 -0.10819 -0.831 -0.21391 -0.73259 0.26973 -0.044801 0.1501 0.25834 -0.31459 -0.01766 -0.0024319 0.78501 -0.20936 0.50947 0.31451 -0.98991 -2.2061 0.0533 -0.36603 -0.072965 -0.4678 0.62902 0.43031 -0.23305 0.23351 -0.16625 0.052962 0.92579 0.014729 0.44576 -0.24075 -0.72644 0.61117 -0.22952 -0.091381 -0.00059406 -0.044095 -0.44372 0.34458 -0.026123 0.33784 0.51214 -0.20846 -0.42889 0.045553 0.53233 0.27282 -0.37554 -0.043268 0.044107 0.57983 -0.50083 -0.53512 -0.38225 -0.46674 0.25681 -0.14329 -0.085403 0.32708 0.35224 0.44599 0.028339 -0.49465 -0.027255 0.34291 0.38963 -0.022253 0.66076 -0.4544 0.71948 0.13411 0.62239 0.25829 0.48626 -0.29368 -0.46892 0.20665 -0.71138 0.24978 0.26729 0.78193 0.16473 0.21688 0.24786 0.23226 0.18535 0.21216 -0.40763 0.40779 -0.090859 0.31528 -0.72896 -0.010062 0.17306 0.32373 -0.30112 0.19065 -0.1219 0.047747 -0.422 0.78507 -0.040872 0.58412 0.1735 -0.22786 -0.14907 -0.075122 0.076468 0.011075 -0.061955 0.13519 0.38086 -0.16736 -0.60963 0.38664 -0.24296 -0.32112 0.6344 -0.30463 -0.095868 0.1307 -0.77504 -0.11676 -0.64228 0.2982 0.39646 0.18228 -0.52613 -0.10487 -0.17949 -0.21558 0.48973 0.21429 0.023346 0.26985 0.32955 0.138 0.18867 0.2104 -0.50081 -0.24097 0.083466 -0.51308 -0.51876 -2.2266 0.56743 0.39412 0.18402 0.020464 -0.27401 -0.13064 0.027768 -0.44361 -0.1994 0.01105 -0.051256 -0.87769 -0.16562 0.2563 0.076439 -0.1575 0.049137 -0.74648 -0.39178 0.52747 0.1388 -0.015659 0.15684 -0.18654 -0.084496 0.067021 -0.086482 0.42335 -0.29405 -0.10628 0.075719 -0.13331 -0.16472 0.43616 0.48927 -0.1591 0.63647 0.39555 -0.55309 -0.27285 -0.037998 -0.021433 0.27138 -0.25963 -0.030835 0.317 0.38559 -0.082629 -0.34405 -0.10116 -0.12563 -0.10706 -0.95694 -0.55217 -0.29439 -0.51647 0.41265 0.58574 0.43327 0.041252 -0.21027 0.57774 0.59501 0.55469 -0.57422 0.25991 0.53751 -0.17313 -0.17816 0.099804 -0.36027 0.37687 0.081302 0.074261 -0.23036
elegant 0.21743 -0.18419 0.33179 -0.022277 0.56813 0.20953 -1.8527 -1.2894 0.087354 -0.31985 -0.010498 -0.91563 0.36491 0.36204 -0.356 -0.32312 -0.54663 -0.22804 -0.4378 -0.18655 -0.86833 0.46096 -0.65919 0.52755 0.19685 0.35607 0.13828 0.27884 -0.051957 0.19498 -0.13987 0.16203 0.32544 0.0074862 0.27035 -0.47407 0.16611 0.21184 0.36862 0.10466 -0.28891 -0.48045 -0.15166 -0.0041458 -0.35933 -0.38776 -0.29721 -0.25587 -0.11311 -0.12629 0.18641 0.28172 -0.000348 -0.1187 0.27118 0.11919 -0.49917 -0.4116 0.37154 -0.58805 -0.23048 -0.20045 0.48982 0.36835 -0.033874 -0.78031 -0.25095 0.68019 -0.25767 0.042405 -0.20032 0.51621 0.064033 0.10767 -0.34386 -0.51909 -0.21989 0.4343 0.17478 0.27351 -0.028219 0.71626 -0.16264 -0.097984 -0.15618 0.073639 -0.088861 -0.25996 -0.16669 0.027454 0.17914 0.10313 -0.079279 -0.097037 -0.1833 0.03756 -2.4966 -0.010172 0.098671 -0.44024 0.12818 -0.33184 -0.03281 -0.40465 -0.091819 0.5036 -0.74964 0.16304 -0.14297 -0.0266 0.10729 0.20006 0.30904 -0.31052 -0.78758 0.31045 0.51944 -0.029359 0.33091 0.29151 0.0062277 0.11879 0.46324 0.027546 0.10216 -0.3057 -0.4445 0.013284 0.004124 0.7159 0.014677 -0.10368 -0.65198 -0.019079 -0.4208 0.65583 0.099172 0.06258 0.11555 -0.14141 0.058606 0.34658 0.24035 -0.040578 -0.027832 0.17742 -0.17076 0.03169 0.69347 0.60841 -0.088121 -0.15058 0.25775 0.00022601 0.3068 0.3701 0.39471 -0.046675 -0.84993 0.45667 0.79604 0.52391 0.046597 0.055629 -0.027266 0.28708 0.014366 -0.39201 0.063025 0.26523 0.13318 0.16785 -0.027779 -0.15164 0.22235 0.14837 0.17648 -0.017946 0.30487 -0.092766 0.11668 -0.38934 0.047501 -0.23688 -0.12349 0.57331 0.24633 0.38044 0.31613 -0.23684 -0.039739 0.22928 -0.43571 0.47484 0.31528 0.68466 -0.26246 0.089553 0.36444 0.27596 -0.01945 -0.64411 0.83278 -0.49149 -0.3131 -0.27894 0.50786 -0.23264 0.36908 0.037109 -0.068528 -0.09986 0.27448 0.24036 -0.18151 0.20478 0.17804 -0.44062 -0.11622 -0.2086 0.28227 -0.28055 0.859 0.10889 -1.7394 -1.1748 0.14258 -0.36641 -0.28534 0.2818 0.14939 -0.22061 0.03608 -0.45402 -0.16871 -0.019581 -0.29495 0.03302 0.32287 -0.39571 0.2042 -0.31777 0.34539 -0.16207 0.43418 0.066877 0.032399 -0.050041 -0.03372 -0.37922 -0.27565 -0.26875 -0.075439 -0.63155 0.10509 0.014021 0.18606 0.10736 -0.093952 -0.053836 -0.013431 0.058398 -0.098914 0.19354 0.053374 0.019288 -0.78964 0.18966 -0.28953 0.054663 -0.16309 -0.19341 -0.94527 0.12537 0.35592 0.04495 -0.20923 -0.015343 -0.90936 0.030542 0.91197 0.48167 -0.019066 -0.15229 0.43639 0.5999 -0.21641 0.14751 -0.11946 -0.24223 0.053741 0.10034 -0.64224 -0.02696 0.38454 -0.15689 0.03634 0.34425 -0.20985 -0.30688
second 0.044251 0.19943 -0.26848 -0.03595 -0.13338 -0.41208 -3.0193 1.3215 -0.11825 -0.091961 -0.45402 0.33932 -0.28547 0.2166 -0.13262 -0.63795 0.23551 -0.20668 -0.28892 0.036623 -0.11898 0.3179 -0.090531 -0.10949 0.103 0.045204 0.19896 0.032125 -0.10533 -0.023741 -0.13795 -0.11813 0.095761 -0.012459 0.25385 0.41726 0.20263 0.27202 0.21872 -0.033012 -0.054939 0.45412 0.0974 0.056458 0.12208 -0.28595 0.025722 -0.0058024 -0.36267 0.35278 0.45728 0.12914 0.37339 -0.066889 -0.32899 -0.059162 -0.15234 0.34859 0.12061 0.060492 -0.16203 -0.028763 0.055114 -0.081815 0.34337 0.28537 -0.21826 0.14676 -0.077682 0.31119 -0.15414 0.12487 -0.15817 0.12137 0.21703 -0.56206 0.11885 -0.28367 -0.12182 -0.11788 -0.084475 -0.48023 0.3513 -0.30896 0.44735 -0.025362 0.090908 -0.2014 -0.047288 0.036139 0.22111 -0.45433 -0.20994 0.35699 -0.17215 0.23607 -2.0009 -0.060994 0.035348 0.14237 0.24188 0.076693 -0.26194 0.32764 -0.059351 -0.2816 -0.11312 0.012497 -0.061936 -0.17241 0.35004 -0.024744 -0.3249 0.14823 0.034618 -0.037942 0.47096 -0.031558 0.17377 -0.56168 -0.25594 0.10897 -0.1289 -0.33161 0.48547 -0.10846 0.03379 -0.012686 -0.13061 0.44773 0.44207 -0.44633 -0.095751 -0.44652 -0.07397 0.052347 0.23059 -0.068556 0.33641 0.22367 0.23565 -0.15689 0.3698 -0.024036 -0.20017 -0.24245 -0.022979 0.20249 0.099809 0.31016 -0.34319 0.10318 0.43029 0.32261 0.17499 0.22015 0.17025 -0.044123 -0.39829 -0.19899 0.26848 0.059745 0.27545 -0.27604 -0.23824 0.086423 0.092741 0.26733 0.19929 0.20172 -0.066453 0.053436 0.10104 -0.42006 -0.14683 0.081549 -0.08855 -0.14055 -0.14241 0.54455 0.25787 -0.2747 -0.44731 -0.34314 -0.075133 -0.14138 -0.29362 -0.38452 -0.34434 0.4293 0.39971 0.016123 0.0049494 0.076925 0.28787 0.085296 -0.23394 0.11296 0.16821 0.28146 0.028681 -0.37572 -0.51721 0.53676 0.25953 0.78664 -0.072759 -0.025337 0.22721 0.20068 0.91961 0.13706 -0.62028 0.038773 -0.043234 0.36626 -0.08867 -0.0024143 -0.51894 0.17887 -0.60229 0.54105 0.036915 -0.21425 -3.3419 0.054194 -0.21871 -0.013661 -0.15628 0.071311 -0.31663 -0.071997 0.16694 -0.074589 -0.075721 0.14288 -0.67836 0.51702 -0.075657 0.16259 -0.37599 0.038596 -0.63038 0.50864 -0.041802 -0.31609 0.089744 0.18422 0.043411 0.48323 0.19857 -0.16102 -0.35345 -0.08891 0.31851 0.4926 -0.0078254 -0.080632 -0.60065 0.022854 0.24902 -0.19267 0.097961 0.075012 0.15325 -0.32052 -0.082042 -0.46623 0.35123 0.03658 0.3065 -0.31781 0.34539 -0.0043709 0.37805 0.20373 0.24304 -0.067054 0.10796 -0.1147 0.76039 0.062291 -0.21285 0.27351 0.25845 0.22344 0.070274 0.36876 -0.28193 0.16072 -0.23564 -0.12235 0.032709 0.26177 -0.27435 0.52823 0.43176 0.27728 -0.27844 -0.32777
air 0.032666 0.25034 -0.17206 -0.21355 0.5965 0.1442 -2.5705 0.38118 -0.087984 0.40007 -0.009781 0.13 -0.40523 0.15416 -0.062325 0.4446 0.030933 -0.0028505 -0.17108 0.41953 0.069961 0.4911 0.016189 0.030924 -0.50912 -0.59627 -0.079205 0.073812 0.49375 -0.10273 -0.1969 0.050862 -0.23547 0.35588 0.36528 -0.22975 -0.72471 -0.2666 -0.19911 -0.0062726 -0.086537 0.17143 -0.19492 -0.33741 0.31031 -0.54122 0.23511 -0.83172 -0.88733 0.087839 0.064827 -0.4195 0.29774 -0.17832 -0.25153 0.53805 -0.11253 0.22773 0.57266 0.23735 0.32569 0.44217 -0.82367 0.50808 -0.031926 0.32185 -0.10585 0.87767 0.37385 0.1466 -0.50006 -0.057995 -0.17961 -0.67609 -0.48825 0.34274 0.47418 -0.20421 -0.24493 -0.29701 0.029851 0.32665 0.04125 0.58961 0.33769 0.50996 -0.35826 -0.071907 0.18518 -0.33417 -0.46062 0.165 -0.44043 0.45215 -0.0012245 -0.34386 -2.2713 0.27098 -0.0079746 0.85357 0.0046572 -0.06005 0.22528 0.43083 0.43948 0.258 0.42032 -0.48261 0.28607 0.012388 -0.043572 0.086285 0.53967 -0.27674 0.14954 0.1283 0.54657 -0.020509 0.13749 0.33271 0.012513 0.017244 -0.59725 -0.1888 0.45558 0.21741 0.22065 -0.5188 0.55661 -0.71091 -0.45157 -0.83839 0.016897 -0.15082 -0.45003 0.46332 0.29239 -0.15724 0.017086 0.19822 0.68761 -0.75857 0.50451 -0.24402 0.12675 0.77671 -0.024456 0.324 -0.34574 -0.25681 -0.22467 -0.21173 0.15036 0.23484 0.28434 -0.13876 0.39095 -0.4479 -0.098971 0.38956 0.098437 0.14346 -0.097838 0.30516 -0.27933 -0.051393 0.46291 0.015573 0.11922 -0.26967 -0.29565 0.17421 -0.23488 0.61057 -0.17849 0.095169 0.084134 0.030553 0.39834 -0.4104 0.57788 -0.18387 0.72702 0.096862 0.40346 0.33153 -0.16503 -0.19892 -0.61683 -0.46703 0.94207 0.31926 0.11685 -0.3159 -0.059031 -0.96838 1.0835 -0.40942 0.45148 -0.15552 -0.97454 -0.045551 -0.13619 0.50278 -0.36994 0.33588 -0.097859 0.1708 -0.33932 0.3018 -0.63367 0.14305 -0.88678 0.1273 0.57941 0.38885 -0.36069 -0.090162 0.035616 -0.67527 0.040071 0.14267 -0.086793 0.34474 -3.6723 -0.13638 -0.51122 0.88808 0.36871 0.6548 0.10714 -0.83924 0.10646 0.71408 0.03836 -0.28141 0.46663 -0.14931 0.15751 0.19154 0.43049 0.29004 0.49348 -0.54482 0.61817 0.35297 0.40581 -0.58585 -0.28759 -0.3859 -0.34896 -0.16837 -0.74845 -0.22897 0.20699 0.34032 -1.0269 0.1818 -0.31496 0.24065 0.24237 -0.025526 0.19751 -0.30954 -0.010922 0.16733 -0.54553 -0.056556 -0.036366 -0.63114 0.6384 -0.32994 -0.071049 -0.47014 -0.08421 -0.049498 0.040307 -0.26232 -0.28921 0.36869 0.37697 0.52247 -0.21306 -0.17461 -0.35397 -0.19951 -0.38219 0.32598 -0.13885 -0.39799 -0.12893 -0.11063 -0.62557 0.28876 -0.095142 -0.87867 -0.3555 0.37966 -0.54632 0.14092
even -0.073475 0.13652 -0.28451 -0.2395 0.063639 0.3239 -4.5676 0.21499 -0.21221 -0.70272 0.022506 -0.059942 0.31514 0.024069 -0.12051 0.054803 -0.085668 -0.27095 -0.050929 -0.17627 0.055849 -0.21083 -0.11639 0.13561 0.093937 -0.088246 0.028227 -0.096673 0.2648 0.040756 -0.47201 0.16011 0.20619 0.0033939 -0.204 -0.17275 -0.086875 0.42175 0.32487 -0.33301 -0.10456 0.28685 -0.2327 0.039655 -0.21667 0.0073279 -0.17401 -0.11287 -0.10604 0.097494 0.10919 -0.23595 0.079664 0.15312 0.25337 -0.275 -0.082729 -0.13238 -0.10505 -0.053869 0.107 -0.030857 0.041889 -0.14713 0.045423 0.13588 0.072141 0.17106 0.25259 -0.13979 -0.2702 0.099834 0.18626 -0.23352 0.20072 -0.078798 0.42548 0.054185 -0.16329 0.1095 -0.058199 -0.67775 0.1374 -0.093541 -0.2349 -0.067697 0.16038 -0.082314 0.0020503 -0.089977 0.23398 -0.0097167 -0.10248 -0.082511 -0.08824 -0.40043 -1.9812 0.1161 0.41613 -0.18719 0.082547 0.11104 0.19216 -0.049232 -0.080107 0.20483 0.059847 -0.74766 -0.18932 -0.20156 0.22801 -0.071149 0.06887 -0.085594 -0.088972 0.18672 0.27959 -0.29846 -0.039384 0.26156 0.075875 -0.044649 -0.076257 -0.048676 -0.24846 -0.24765 0.14632 -0.36018 0.17117 0.078588 -0.22029 -0.10873 -0.14766 -0.37781 0.029716 0.31265 0.0087977 0.10534 0.12457 0.28063 0.14678 0.17021 -0.06271 -0.063782 -0.043105 -0.26939 0.0070897 -0.18133 0.026696 0.033867 -0.011972 0.22238 -0.013561 -0.18394 0.34099 -0.07426 0.15329 0.043141 -0.18733 0.36925 -0.1801 0.25596 -0.077028 0.027647 -0.037411 -0.11371 0.18984 -0.16989 -0.048458 -0.17985 0.058442 0.048818 -0.27142 -0.18659 -0.070534 0.38021 0.1986 0.16876 -0.14185 -0.16468 -0.044209 0.0096398 -0.12804 0.071689 -0.071374 -0.23165 0.0079892 -0.11499 0.16773 -0.073445 0.24117 -0.36752 -0.035865 -0.19917 0.063874 0.0046904 0.022993 -0.16635 -0.18959 -0.03689 0.27648 -0.25948 -0.3313 -0.052895 -0.12317 0.26272 0.0081006 -0.15709 0.50566 -0.24555 0.035686 -0.031872 -0.0010094 -0.42534 0.25382 -0.16314 0.084026 -0.18537 0.20077 -0.11081 -0.16504 -0.064167 0.025829 0.015188 -2.5492 0.13673 0.086248 0.25784 0.32716 -0.29171 -0.025632 0.078743 -0.099306 -0.18443 -0.092019 -0.10809 0.22054 -0.091232 0.039476 0.12424 -0.20723 0.2152 -0.65031 0.40143 -0.052627 0.024193 -0.29423 0.22745 0.25613 0.33695 -0.047946 -0.2709 -0.13827 -0.14938 -0.12471 -0.11903 0.24696 -0.12399 -0.18659 0.15722 -0.081615 0.029469 0.21243 -0.040303 -0.017143 0.030267 -0.37546 0.20998 0.253 -0.02295 0.025411 -0.17114 -0.075406 0.11658 -0.030923 -0.24243 0.21251 0.36748 -0.18998 0.096998 0.88797 -0.18992 0.24014 0.1015 -0.044443 0.048249 -0.14808 -0.078514 -0.018016 -0.12401 0.080692 -0.24545 -0.099317 -0.27484 0.016487 -0.022912 0.03024 -0.060397 -0.052936 0.08121
hate -0.10526 0.081236 -0.49387 -0.29267 -0.22659 0.16523 -3.2018 -0.22542 -0.052961 -0.5821 0.78206 0.18317 0.078036 -0.23652 -0.25072 -0.052309 -0.22813 0.14715 -0.096038 -0.13066 0.14997 -0.24571 0.40815 0.048183 -0.81469 -0.087174 -0.92342 -0.11772 0.041243 0.25829 0.049386 0.26694 0.050378 0.4764 -0.26189 -0.029385 -0.023016 0.049619 -0.081991 -0.43519 0.469 0.43038 -0.28941 -0.20096 0.49056 0.42639 -0.13714 0.30645 0.21028 0.2955 0.20661 -0.097467 -0.018087 -0.3384 0.15181 -0.23538 -0.20545 -0.020766 0.59605 0.29794 0.2017 0.32514 0.45218 -0.049968 0.059779 -0.078528 0.11056 -0.18567 0.43525 0.052367 -0.014039 -0.086687 0.11786 0.04999 0.031789 0.53616 0.28458 0.222 0.06553 -0.14808 0.43501 -0.13438 -0.4739 -0.10528 0.098686 -0.090594 0.21536 0.11218 -0.15066 0.097086 -0.47273 0.020154 -0.19988 -0.032417 0.17287 -0.043589 -1.3925 0.083911 0.068091 0.10821 -0.62874 -0.037112 -0.56486 0.10946 -0.42283 0.10787 0.065483 -0.44142 -0.14233 0.24021 -0.028658 0.45184 0.10004 0.14875 -0.049726 0.57354 0.17958 -0.53855 0.16578 -0.022035 -0.2426 -0.47167 0.19258 0.33593 -0.0064434 -0.16029 0.21699 -0.035989 0.39329 -0.46094 -0.51686 0.16557 0.21218 0.34075 0.44325 -0.3739 0.69481 0.049127 -0.15732 0.1637 0.18693 -0.21231 -0.23296 -0.066985 0.040412 -1.05 -0.079859 0.40473 -0.23655 -0.1127 0.063318 0.13718 -0.032354 -0.14075 0.026257 -0.19615 0.20391 0.16865 0.017443 0.72018 -0.36991 -0.036124 -0.40762 -0.15707 0.25578 0.045705 0.25151 0.087734 0.10452 -0.23387 -0.21577 0.20132 -0.48854 -0.34284 0.15023 -0.47939 -0.2555 0.1579 0.12855 -0.15888 0.32443 0.33039 -0.43551 0.0089492 0.40361 0.10975 -0.39324 -0.51729 0.33695 0.47562 0.57239 -0.27419 0.19208 -0.43002 0.36552 0.13106 -0.44677 -0.085822 0.011816 0.08167 -0.04759 -0.011805 -0.34913 -0.23469 -0.54818 -0.5263 0.010571 -0.49653 0.23681 0.46719 0.26822 0.29239 0.19642 0.22404 0.28069 -0.30801 0.12719 0.40527 0.66073 -0.26319 0.16928 -0.53297 -0.21488 -0.18571 -1.6873 0.13594 0.35798 0.4429 0.4684 -0.37036 -0.4185 0.75254 -0.17563 -0.39444 -0.58404 -0.295 0.16892 -0.14758 -0.18063 0.22116 -0.11517 -0.35051 -0.24752 0.68985 -0.16865 0.14742 -0.36237 0.20663 0.67499 0.079748 -0.16502 -0.083429 0.027726 0.52757 0.25892 -0.078851 -0.23133 0.44727 0.13 0.020815 -0.36549 -0.058972 -0.1469 -0.36045 0.26016 0.057465 -0.059095 -0.17909 0.31959 -0.18476 0.12565 0.013368 -0.1647 -0.17116 -0.45095 -0.14198 0.28895 0.3017 0.46303 0.17369 0.6175 -0.19746 -0.38452 0.090088 0.0321 -0.30747 0.33526 0.29949 -0.17132 0.46382 0.084069 -0.048861 0.079438 0.17131 0.24369 0.19685 -0.247 0.16726 0.19663 0.31082
+ 0.12661 0.60786 0.0674 0.5343 0.71294 -0.14491 -2.176 0.088686 -0.10237 -0.51969 0.29016 0.25784 0.020082 0.17931 -0.49944 0.35018 -0.60872 -0.12399 0.44921 -0.40127 0.72598 -0.057343 0.18023 0.43755 0.35668 -0.31072 -0.18163 -0.12723 0.03808 0.25457 0.23558 0.015944 0.024993 -0.75905 0.53726 0.227 0.16478 -0.79498 0.060957 0.11044 -0.2561 -0.51355 -0.67779 -0.08224 -0.27894 -0.5039 -0.54984 0.22183 0.75211 0.18768 -0.2321 -0.20312 -0.35051 0.050307 -0.27849 -0.090839 -0.097109 0.89901 -0.0044304 -0.48312 -0.19075 -0.18005 -0.52651 0.017555 -0.25315 0.0054344 -0.20786 -0.48632 -0.043966 -0.31801 0.16526 -0.36278 -0.22311 0.52122 0.21544 0.20813 0.42965 0.12104 0.22164 0.36739 0.36568 0.53838 0.39743 -0.33153 -0.036249 0.69813 -0.28569 -0.33983 -0.3441 -0.12263 -0.33424 -0.62336 -0.30496 -0.17828 -0.21297 0.75493 -2.3331 -0.36337 0.94786 0.32847 -0.26723 -0.79279 0.97994 -0.1825 -0.089019 -0.40691 0.0027238 0.86499 -0.33644 -0.076079 -0.86286 -0.053119 0.44973 0.17418 -0.034667 0.17464 0.47357 -0.074915 0.047086 0.4306 0.14416 -0.27192 0.15825 -0.18427 0.092522 -0.17628 -0.013613 -0.70973 0.48074 -0.27044 -0.3848 -0.064657 -0.17011 0.3584 -0.11334 -0.57422 -0.30225 -0.14397 0.17306 0.7273 -0.21153 -0.29653 -0.35428 0.12355 -0.86554 -0.004742 0.94304 0.47224 0.27465 -0.1712 -0.39381 -0.063762 -0.42146 0.6041 -0.13533 0.033809 -0.14336 0.42076 0.7515 -0.28431 -0.15939 0.51931 -0.19244 -0.10177 0.097713 -0.76279 -0.15421 -0.52491 -0.65168 -0.22003 -0.073627 0.52081 -0.22883 -0.7664 0.15537 -0.16579 -0.39434 0.018096 -0.48874 -0.25148 -0.014989 0.48464 0.069717 0.042071 0.24794 -0.34862 0.71791 -0.11183 -0.13745 0.15238 0.21093 -0.004997 -0.40878 0.40542 -0.22672 -0.084058 0.27399 -0.19018 0.20839 -0.13118 -0.97536 0.035992 0.40134 -0.46218 0.36059 0.19255 0.49696 0.048909 -0.12464 0.49937 -0.47933 -0.83034 0.1352 0.20008 -0.20189 0.015738 -0.45126 -0.31833 0.12264 -0.0096834 0.079192 -0.43743 0.26796 -0.12576 -3.9295 0.51855 0.46004 -0.19691 -0.32835 0.06354 0.087968 -0.1517 -0.20415 0.29827 0.14785 0.42187 0.012323 -0.20668 -0.42608 -0.3955 -0.28854 0.48197 0.10519 0.26847 0.27503 0.26538 0.0030342 0.0054021 -0.27174 0.37719 0.12662 -0.18442 -0.03838 -0.49181 -0.15026 0.069186 -0.11958 0.0091705 -0.076849 0.81477 0.51042 0.23159 -0.029252 0.13151 0.43938 -0.49255 -0.27712 0.31077 0.13945 0.23809 -0.49751 0.37958 -0.037049 0.31078 -0.2183 -0.31182 -0.10701 0.11657 0.34937 -0.48142 -0.381 -0.13423 -0.13193 0.069129 -0.0072605 -0.034406 0.28723 0.33964 0.31069 0.31374 -0.32089 -0.38022 0.39318 0.20939 -0.088788 -0.078185 -0.3465 0.30841 0.19999 -0.14606
fingers -0.62676 -0.35737 0.29083 -0.32371 -0.072704 -0.37918 -2.2383 0.18347 0.59655 -0.7528 -0.25234 0.081089 0.23966 -0.71282 -0.34809 0.30963 -0.022997 -0.062996 0.22733 0.32414 -0.45907 -0.035611 0.037677 0.44848 0.64818 -0.22796 0.1311 -0.42758 -0.09104 -0.39848 0.60656 -0.52429 -0.30244 0.1167 -0.31299 0.16719 -0.46937 -0.48029 -0.41518 0.039038 0.28601 0.16009 0.13157 0.27446 -0.030187 -0.016332 0.3975 -0.2538 0.049528 0.095181 0.15736 -1.0089 -0.20796 0.29877 0.31845 0.14112 0.52981 0.06354 0.5256 0.42104 0.16484 0.48863 0.44267 0.10309 0.47421 -0.15655 -0.21796 0.59298 -0.34203 -0.2252 0.59651 0.35577 -0.62262 0.076028 -0.17335 -0.91206 0.48588 0.22999 0.11497 -0.14796 -0.3008 0.56916 0.46271 -0.17539 -0.63636 -0.26485 -0.44151 0.26271 -0.72899 0.28615 0.34874 0.66292 -0.0059132 -0.35547 -0.092547 0.050109 -1.0952 0.46131 0.093855 0.65404 0.12921 0.14055 0.021202 0.46079 -0.81505 -0.25819 -0.18179 -0.015956 -0.066323 0.055539 0.034461 0.16538 -0.24586 0.44518 0.11947 -0.015253 -0.80498 -0.06046 0.72448 0.18026 0.070802 -0.1927 0.13065 0.30242 0.16175 -0.078488 0.31309 -0.29175 0.22756 0.17392 0.019748 0.1607 -0.58576 -0.55841 -0.70948 0.11501 0.27333 0.53883 0.12111 0.74863 0.40856 -0.23248 0.27016 0.2153 0.1378 -0.42601 0.027823 -0.27756 0.59232 -0.48798 -0.094146 -0.064795 0.087416 -0.18381 0.5622 0.31025 -0.24549 0.45247 -0.26035 0.57892 0.08067 0.22292 -0.32404 0.22868 0.24327 -0.36809 -0.10523 0.23305 0.024512 0.26394 -0.73937 -0.016403 0.25772 -0.067844 0.20355 -0.40199 0.0471 0.19891 -0.37063 -0.13263 0.078376 0.010906 -0.0103 -0.39813 0.28817 0.2696 0.18517 -0.41122 -0.28163 -0.18945 0.3225 0.026721 -0.33724 1.0466 -0.24828 0.12016 0.62277 -0.43408 0.13326 0.36393 0.41347 -0.26974 -0.44334 -0.1633 -0.2362 -0.31589 0.026405 -0.93189 0.26294 -0.016686 0.087485 -0.44714 0.53739 -0.078811 0.46522 -0.18406 -0.50373 -0.39764 0.15654 0.059464 -0.10652 -0.079259 0.26625 -0.10919 -1.9803 -0.1701 -0.39701 0.17191 0.065992 -0.0846 -0.18063 0.25069 0.21036 0.10728 -0.0048431 -0.52257 -0.27039 0.056419 -0.15412 0.55281 0.56809 0.78407 -0.027638 0.34183 -0.080777 -0.22867 0.31175 0.2737 0.37145 -0.79202 -0.074175 0.09848 -0.15371 -0.18436 0.019906 -0.065737 -0.085132 -0.0061412 -0.35313 0.12091 0.15736 -0.16031 0.10875 0.042298 -0.2719 0.4399 -0.021464 0.11881 0.11196 -0.027168 -0.19347 -0.48254 0.40832 -0.27228 -0.2639 0.55891 0.12455 -0.1543 0.36622 -0.40274 1.689 -0.33806 0.71532 0.15775 0.077643 -0.060941 0.76973 -0.13352 -0.07693 -0.19705 -0.17269 -0.45486 0.044558 -0.1254 0.17451 -0.075725 0.026016 -0.98131 -0.043254 0.17392
supplied -0.331 0.17115 0.1655 -0.55102 0.60925 0.034829 -2.3165 0.40075 -0.044699 0.15847 -0.47226 -0.084793 -0.12583 -0.038082 -0.1569 -0.41761 -0.070079 0.1518 0.15355 0.42852 -0.36611 0.2475 0.18503 0.1496 0.32122 -0.13222 0.34448 -0.0087397 -0.051382 -0.3862 0.56084 -0.10053 -0.35013 -0.062612 0.073079 0.23459 -0.10435 -0.095315 -0.066966 0.093545 -0.32995 -0.052991 -0.4156 0.054473 -0.17523 -0.0042789 0.24684 0.055751 0.19193 -0.30109 -0.4694 -0.19669 -0.074068 -0.33985 0.010304 0.82435 -0.13893 0.35188 0.10191 -0.088397 -0.0005741 0.34285 -0.18266 0.098042 -0.26555 0.43273 0.23407 -0.053257 -0.21596 -0.15439 0.25365 0.1381 0.15442 0.3069 -0.0027341 0.29089 -0.15706 -0.31955 0.13819 0.72873 0.27858 0.20263 -0.1567 -0.10103 -0.29919 0.39427 -0.35009 -0.20495 0.067799 0.18128 0.10124 0.05872 -0.33383 -0.015963 0.66727 -0.45855 -1.5403 -0.46373 -0.26139 -0.30902 -0.074893 -0.4406 -0.10265 -0.11635 0.21495 0.45691 0.3895 -0.50686 0.043905 -0.14958 -0.19096 0.20874 0.13546 -0.055449 -0.36756 -0.34867 0.41206 0.28235 -0.11648 0.0047212 0.39039 -0.11846 -0.29785 -0.37682 0.37284 0.04395 -0.17361 -0.38612 -0.15503 0.624 -0.03512 0.07822 -0.11226 0.21994 -0.080068 0.14637 -0.54363 0.014588 0.46092 -0.67694 0.17064 0.11216 0.42381 -0.27869 0.15515 0.0068198 0.13316 -0.28385 0.2071 0.10422 -0.16759 0.045851 -0.1044 -0.0524 0.093754 -0.50941 0.027214 -0.2049 0.30979 -0.014082 -0.83798 0.0023973 0.2113 0.022763 -0.32038 -0.22324 -0.062887 0.28746 -0.15949 0.21484 0.10825 -0.36362 0.05299 0.26701 -0.19079 0.060835 0.10873 0.21973 0.26955 -0.14796 0.4753 -0.26411 -0.045352 0.052358 0.032974 -0.46692 0.41695 0.212 0.15285 0.3362 -0.2077 0.28065 0.35354 0.351 0.38471 0.20686 0.07654 -0.17463 0.1451 -0.26814 0.76438 0.14551 -0.17334 0.51708 0.11809 -0.22906 -0.37218 -0.0032052 -0.1967 -0.44822 -0.38295 0.59043 -0.10276 0.22919 -0.05076 0.10922 0.0060315 -0.5083 -0.22053 -0.38048 0.061087 0.12167 0.44468 0.55677 -1.861 0.55836 0.071492 -0.36631 -0.198 0.13001 0.16135 -0.13646 0.035219 -0.27584 0.12398 0.071794 -0.18299 0.078651 0.03344 -0.42871 -0.17909 0.10544 0.48959 -0.88817 -0.19035 -0.012514 0.15864 -0.3148 -0.17334 -0.16452 -0.15973 -0.058843 -0.48875 -0.14668 -0.20742 0.61111 -0.13118 0.39832 -0.49117 0.12866 -0.0051576 0.070041 0.071459 0.10369 0.89466 -0.78408 0.54168 0.079024 -0.87284 -0.20097 -0.1472 -0.29541 0.19778 -0.086566 0.085927 -0.16526 0.15502 -0.022934 0.65215 0.17723 -0.14983 -0.27137 0.13186 0.34817 -0.061484 0.23655 0.030534 -0.19495 0.15208 -0.49816 -0.23919 0.11041 -0.28844 -0.045581 -0.49494 0.063612 -0.013384 -0.1156 0.08233 0.15262
wouldnt -0.23358 0.53134 -0.16338 0.0017767 -0.033674 0.19973 -2.4116 0.049066 0.30073 -0.5658 -0.059733 0.057897 0.55997 -0.68374 0.27862 0.1827 -0.3252 -0.033245 -0.14396 -0.051052 0.66072 -0.38039 -0.1678 -0.032534 0.080591 0.24142 -0.067557 0.35266 -0.058714 0.21733 -0.012885 0.12547 -0.0336 0.12473 0.040187 -0.000795 -0.36064 0.18976 0.31793 -0.30211 -0.11292 0.060121 -0.11928 0.097404 0.15422 0.017006 -0.23117 -0.23525 0.06018 -0.032842 -0.29181 -0.38495 0.30409 -0.20441 -0.27801 -0.2327 -0.40986 -0.89649 -0.17979 -0.18526 -0.04557 -0.01437 0.28123 0.23378 0.067307 0.39108 0.10024 -0.28241 0.062445 -0.40859 0.23605 -0.20414 -0.032743 0.017053 -0.045429 0.48059 0.62814 -0.26651 -0.39531 0.34665 -0.15679 0.085714 0.1458 0.097747 0.051731 -0.29522 0.013102 0.27132 0.15835 0.047315 0.50381 0.021225 -0.18955 -0.059875 -0.088731 -0.58802 0.29455 0.4973 0.16709 0.31984 -0.12085 -0.16104 -0.7832 -0.09263 -0.063269 0.0059557 -0.077001 -0.1462 0.072091 0.040841 0.055055 0.0029226 -0.32694 -0.030845 -0.46276 0.33272 -0.31604 -0.19009 0.47737 0.048664 -0.11484 0.0626 0.25566 -0.15406 0.01394 -0.52139 0.16136 -0.20326 0.15975 -0.44515 -0.35272 0.080773 0.1829 -0.051959 -0.013152 -0.79656 0.064923 -0.040803 -0.31857 0.041773 -0.046136 -0.020534 -0.11503 0.0078542 0.16423 -0.31308 -0.25425 -0.085581 -0.55782 -0.043976 -0.17101 0.12769 0.02603 -0.070171 -0.013487 -0.23581 -0.37557 -0.1012 -0.31705 0.52602 -0.17624 0.18968 -0.32936 -0.0048515 -0.20011 -0.013528 0.45767 -0.11912 -0.15356 0.11066 -0.1029 0.11311 -0.066131 -0.075626 -0.1642 -0.11031 -0.29801 -0.0020246 -0.053437 -0.49693 0.2813 0.41763 -0.20972 -0.10311 -0.047576 0.14757 -0.17937 -0.21245 0.089903 0.51676 0.43255 -0.27457 0.018744 -0.19414 -0.12118 0.058558 0.29063 -0.19658 0.074543 0.11355 0.45868 0.1931 -0.64499 -0.46754 -0.2889 0.25829 -0.34651 -0.11212 0.56847 0.11726 0.19968 -0.068309 0.38892 0.25052 0.3894 -0.070154 0.06923 0.44034 0.06969 -0.41215 0.17307 -0.20861 -0.41971 0.048419 -1.2525 -0.011329 0.31409 -0.10261 0.64798 -0.19924 0.030683 0.34555 -0.10928 -0.23006 -0.83822 0.11841 -0.32876 0.013469 0.2951 0.47783 -0.081745 -0.21674 -0.38945 0.45572 -0.12897 0.028138 -0.18748 0.3671 0.56928 -0.062408 -0.0094747 -0.15653 0.071445 0.15602 0.02372 0.0038325 0.40398 0.38885 -0.37219 0.25925 -0.31973 0.19587 0.084434 -0.69028 0.059748 -0.1407 -0.09647 0.28402 0.12493 -0.010262 0.033148 -0.10172 0.31946 -0.3246 -0.20645 -0.7388 0.2194 0.26572 0.2809 0.23351 0.78358 -0.038221 0.11895 0.316 0.076874 -0.0010318 -0.0099118 0.44758 -0.22502 -0.26108 -0.22687 -0.27007 -0.20228 0.23234 -0.036001 -0.087699 0.21606 0.25541 0.62583 -0.082094
above 0.12187 -0.11423 -0.28708 -0.52403 0.36325 -0.47063 -3.2598 0.73255 -0.16702 -0.020067 -0.33104 -0.04297 0.049278 0.32381 -0.1867 -0.031466 -0.52432 0.33634 0.055882 -0.049481 0.0062204 0.17067 0.27017 -0.16603 0.23524 -0.035579 0.355 -0.16928 -0.030679 0.031953 0.3765 -0.0048623 -0.25662 -0.26556 -0.28331 0.60302 -0.016678 0.0094594 0.16623 0.076779 -0.18629 0.46222 -0.49493 0.034744 -0.39037 -0.24032 0.037615 0.14778 -0.029999 0.012894 0.0038174 -0.0014046 0.049657 0.49007 0.092307 0.21726 0.57805 -0.30176 -0.55278 -0.037297 0.13639 -0.33539 -0.37389 0.36291 0.12577 0.28854 -0.079602 -0.15562 0.16358 -0.11527 -0.15592 -0.19644 -0.27497 0.021488 0.3583 -0.42262 0.41024 -0.14386 0.21803 -0.34155 -0.027787 -0.22045 -0.26677 -0.48358 0.5572 -0.26652 -0.29556 -0.29299 -0.23648 0.062944 -0.46544 -0.24342 0.34695 -0.21932 0.083344 -0.11603 -1.8846 0.048431 0.55108 0.047106 0.43125 0.19856 0.18239 0.050328 -0.37612 0.1372 -0.099419 -0.41101 -0.098071 0.47301 -0.28914 -0.079177 0.2052 0.085608 -0.39147 0.063163 -0.044044 -0.67716 0.068706 0.05709 0.0012798 0.049882 0.11767 -0.59328 -0.17367 -0.58343 0.24279 -0.35529 0.3142 0.60031 -0.02252 0.00065106 0.16027 -0.086127 0.00073524 0.21126 -0.086969 -0.31705 -0.18697 0.36263 0.25395 0.059958 0.1713 -0.53977 0.028166 -0.14222 0.023231 -0.33268 0.29225 0.090698 0.037268 -0.31563 -0.12274 0.10269 -0.33615 -0.25078 -0.30852 0.060225 -0.084576 -0.06931 0.42971 0.49878 -0.057156 0.40095 0.17954 0.33006 0.48334 0.53208 0.38629 0.26704 0.054731 -0.60574 0.094527 0.092684 0.10407 0.34206 0.74645 0.11127 0.37459 0.23035 0.40144 -0.05495 -0.45304 -0.13047 -0.26656 0.13811 0.054233 0.077952 -0.086029 -0.3062 0.0054313 0.26692 -0.16943 0.30519 0.39795 -0.29977 0.33821 0.10151 0.30625 -0.57247 0.30659 0.23281 0.40133 -0.27008 -0.25186 0.28612 -0.06611 0.15299 -0.070716 0.28862 0.038142 0.13885 0.066475 0.11817 0.18464 0.021626 -0.16226 -0.3725 0.076322 0.11106 0.46078 -0.60993 -0.1669 0.054067 -2.9192 0.24452 -0.38194 -0.33651 0.22954 0.039279 0.14455 -0.10317 -0.16656 -0.20076 0.26862 0.076982 0.028615 -0.0091698 -0.70032 -0.28172 0.017548 0.67646 -0.082235 -0.58364 -0.27964 0.14389 0.0092648 0.11301 0.087704 0.35357 -0.15566 -0.37656 -0.10723 -0.14359 0.22197 -0.015853 0.11052 0.19963 -0.044149 -0.11569 -0.39564 -0.073149 0.25376 0.12236 -0.045434 -0.23619 -0.13383 0.021775 -0.28973 -0.31822 -0.29862 0.1375 -0.095822 0.18904 -0.38275 0.21345 0.065164 0.17633 -0.2214 0.33521 0.43276 -0.13365 -0.0054947 0.51826 0.084115 0.033971 0.032777 -0.17534 -0.041173 0.12739 -0.18673 0.34261 0.44909 -0.23883 0.09299 -0.011734 -0.51439 -0.029505 -0.20038 0.14152
new -0.063004 0.031239 -0.18579 0.044635 -0.13728 0.20852 -3.0928 0.51131 0.030234 -0.5048 0.18275 -0.17641 -0.052801 0.18643 -0.1523 -0.051885 0.10524 0.011579 0.24091 0.010702 0.0063483 -0.0052369 -0.096554 -0.060413 -0.099636 -0.046387 -0.41514 0.1355 0.064773 -0.15405 -0.9304 0.41329 -0.069841 -0.012174 0.24677 -0.34287 0.39454 -0.20151 0.39742 -0.053066 -0.47727 -0.41655 0.35602 0.21111 0.10663 -0.41312 0.0082616 -0.38526 -0.16343 0.66813 -0.19065 0.33698 -0.43189 0.058042 0.55317 0.34748 0.064496 0.0022694 0.20072 0.22098 -0.30341 -0.28312 -0.31363 0.53067 -0.025296 -0.15465 0.036343 -0.46435 0.2324 0.18428 -0.12815 -0.013027 -0.19626 -0.31234 -0.07101 -0.78771 -0.29466 -0.17576 0.067903 -0.39181 0.269 -0.68174 0.2519 -0.24059 0.27325 -0.14917 0.83279 -0.30103 -0.028582 -0.33734 -0.2991 -0.20228 0.14101 0.0023135 -0.2727 -0.57234 -3.2172 -0.46713 -0.20993 -0.48806 0.49618 0.078517 0.66969 0.10868 0.19829 0.15625 0.27715 0.70318 -0.29784 0.25801 -0.34829 -0.43414 0.099575 0.4715 -0.31241 0.45226 0.76259 0.36508 0.25221 -0.12493 0.098863 0.0062592 -0.29063 0.31175 0.38153 0.48195 0.10216 -0.10257 -0.025863 -0.37701 0.087649 -0.13177 -0.11675 0.45153 0.14577 0.195 0.12384 0.098835 0.53697 0.49282 0.069783 0.07067 -0.14149 0.058837 0.063967 -0.19756 -0.3639 0.10592 0.16831 0.61402 -0.080258 0.34805 -0.11233 -0.14224 0.0086569 0.15688 0.35244 0.22691 -0.050237 -0.24736 -0.28841 -0.083235 -0.15517 -0.35509 -0.14373 0.2616 0.1803 -0.038211 -0.38005 -0.831 -0.33748 0.037304 -0.19378 -0.54925 -0.07345 0.13146 -1.0388 0.35216 0.50045 -0.17853 0.096374 -0.09741 0.63969 -0.089913 0.17378 -0.097138 -0.29316 -0.019741 -0.2815 0.74473 -0.22485 0.1939 0.02959 -0.04095 0.074386 -0.086166 0.25382 0.11339 0.11157 0.72497 -0.62336 -0.07874 -0.19173 0.17641 0.067506 -0.36622 -0.058263 0.17013 0.50655 0.1476 0.3587 -0.22899 0.11184 -0.02172 -0.22123 -0.31221 -0.063867 -0.22743 -0.04024 0.45925 -0.044871 0.043306 -0.31833 0.17021 -3.5768 0.38211 0.048462 -0.10886 -0.1674 0.11626 0.034908 0.22989 0.2438 0.34586 0.15139 0.66616 -0.40853 0.37251 -0.69017 -0.2199 0.4407 -0.18349 -0.31073 0.18793 -0.33471 0.033364 0.031918 -0.95115 -0.17393 -0.12559 0.010029 -0.014839 0.098882 -0.17765 0.019029 -0.33748 -0.44808 -0.18664 0.072643 0.19137 0.95844 -0.0030384 0.035579 -0.18228 -0.55415 -0.32349 -0.37264 0.33125 0.54911 0.15412 0.21926 -0.1529 -0.19009 0.034024 0.33934 0.28025 0.10679 0.29297 -0.051538 -0.047361 -0.21209 0.25042 -0.096005 0.18085 0.14923 0.4373 -0.30703 0.32686 0.093145 0.2942 -0.25635 -0.32371 -0.28559 -0.50285 -0.061455 -0.35492 -0.27389 -0.15301 0.53436 -0.13498
ever -0.40553 0.38 0.014951 0.030863 0.1347 0.41276 -3.6296 -0.013165 -0.10981 -0.56933 -0.10373 -0.084176 0.3655 -0.16322 0.66753 0.33449 -0.16431 -0.44568 0.19667 0.21354 0.51085 0.17863 0.25885 0.085582 0.043521 -0.047882 -0.17578 0.096578 -0.054491 0.22112 -0.18235 0.088846 -0.0064929 -0.047448 0.090127 0.018068 0.032668 0.22863 0.26153 -0.21084 -0.1085 0.059079 -0.10888 0.10997 -0.45286 0.30416 0.068547 -0.29055 -0.32341 0.14592 0.058858 -0.46685 -0.081514 -0.0027225 0.1072 0.10352 -0.25679 -0.24046 -0.10077 0.34851 0.35814 0.14269 0.38139 -0.39697 0.058448 0.11574 0.0033406 0.038747 -0.031781 -0.37998 -0.39155 0.32537 0.11623 0.55826 -0.041413 0.049067 0.30344 -0.061697 0.049088 0.20377 -0.10634 -1.1304 -0.049998 0.23738 -0.14344 -0.44531 0.2165 0.15618 0.19104 0.047776 0.61134 -0.13036 0.024134 0.23852 -0.30167 -0.1935 -1.6285 0.49539 0.4878 -0.44048 0.1969 0.26523 0.16126 0.033351 -0.22907 0.26679 0.1973 -0.38735 -0.13821 -0.45548 0.012515 -0.033076 -0.26263 -0.04296 -0.30216 0.89304 0.14632 -0.10486 0.051123 0.081381 0.12606 0.19816 -0.28534 0.30582 0.3658 -0.18347 0.24923 0.066185 -0.15999 -0.15604 -0.43333 -0.54287 -0.15209 -0.21405 0.42531 -0.28852 -0.097135 -0.15043 -0.061394 0.33052 0.19205 0.052723 0.11086 -0.21039 0.035032 -0.29626 -0.31651 0.12401 -0.0050664 0.2022 -0.21569 0.39272 0.1933 0.2302 0.022111 0.30767 -0.36626 -0.084412 -0.057086 0.18638 0.13005 0.32898 0.087123 -0.17662 0.070539 0.049075 0.23082 -0.13632 -0.13121 -0.080622 -0.11005 0.23692 -0.10981 -0.44863 0.097567 0.21378 0.1111 0.014151 -0.058942 -0.23539 0.22116 0.16462 -0.045686 0.30262 0.012072 -0.0026899 -0.32234 -0.027437 0.19031 0.35476 0.21535 0.22533 -0.10534 -0.17006 -0.12093 0.13256 0.30654 -0.248 -0.013076 0.057118 0.1283 -0.48861 0.055662 0.070235 -0.18241 -0.028277 -0.19111 -0.16998 0.49602 0.12835 0.12171 0.15258 0.095437 0.017604 0.14563 -0.020258 0.037025 0.028925 0.039173 -0.57659 -0.18097 -0.067692 -0.34786 -0.018379 -2.7666 -0.18371 -0.18456 0.092117 0.46733 -0.34777 -0.15663 -0.13052 -0.19947 -0.34635 -0.36855 -0.10994 -0.039794 0.046175 -0.044448 0.19683 -0.26899 -0.067802 -0.65463 0.60649 -0.074128 -0.042132 -0.40698 0.21663 0.18062 -0.0085162 0.15852 -0.14388 -0.068131 -0.19913 0.11246 -0.16139 0.70235 0.46732 0.33412 0.1937 0.10436 0.11532 0.02318 -0.11646 0.1162 0.071636 -0.22328 0.019681 0.034955 0.25033 -0.046232 -0.51256 -0.19963 0.36685 0.086463 -0.16049 0.077991 0.16691 0.1698 0.14762 0.92475 -0.23902 0.073242 -0.26528 0.10413 -0.12908 0.0067647 0.10228 -0.19379 -0.049252 -0.28873 -0.29708 -0.19101 -0.31593 0.0037263 -0.13392 0.20952 -0.0746 -0.028579 0.36173
told -0.16576 0.1825 0.027381 0.27174 -0.26393 -0.032695 -3.0819 0.10803 -0.092264 -0.37202 -0.25535 -0.081302 0.32083 -0.63606 0.28785 0.25875 0.45369 -0.17878 -0.37246 0.52116 0.10954 -0.30691 -0.14572 -0.47659 -0.23164 -0.14974 -0.16144 -0.026918 0.20462 -0.14298 -0.068611 0.22775 0.2122 0.54808 0.29239 0.016385 -0.037641 0.12912 0.081736 0.20053 -0.1776 0.29365 0.2174 0.055626 0.021111 0.039525 -0.10009 0.054548 0.12711 -0.069142 -0.65612 -0.7642 0.5941 -0.45106 0.11221 -0.19568 0.28722 -0.35275 -0.075216 -0.17448 -0.0081854 -0.23558 -0.039538 -0.27919 -0.15438 0.76772 0.43774 0.31908 -0.12596 -0.311 -0.24188 -0.15629 0.11535 0.15299 0.45957 0.38626 -0.13211 -0.18621 -0.29727 0.09246 0.46685 -0.98507 -0.28518 -0.039696 -0.023882 0.21681 0.45041 -0.31773 -0.17461 -0.21106 0.10766 0.67038 -0.42937 0.17975 -0.093949 -0.62608 -1.0803 -0.060077 0.033839 0.18928 -0.13691 0.22463 -0.38759 -0.25368 -0.16954 0.20533 0.23014 -0.55146 0.038114 -0.22533 0.22389 -0.50852 -0.35893 0.083839 -0.29213 0.43563 -0.28837 0.018229 -0.0066081 -0.1019 -0.11713 -0.14225 0.27414 0.11072 -0.063888 0.022005 -0.040341 -0.57541 -0.16573 0.28646 0.087952 -0.32301 -0.051793 -0.1145 0.18196 0.21131 -0.16817 0.70159 -0.23256 0.48843 0.12569 -0.027609 0.21826 0.38123 0.24976 -0.4826 0.17491 -0.49709 0.21052 -0.088496 -0.0793 0.045793 0.12714 -0.067628 -0.56186 0.011628 0.24799 0.29234 0.080251 0.55297 0.042002 0.28928 -0.052607 -0.4231 0.10413 0.34402 -0.0041078 0.14437 0.062879 -0.55952 -0.248 0.25348 -0.0098201 0.069595 0.0062147 0.35809 -0.42116 -0.13882 -0.29719 -0.13166 0.1011 -0.1049 0.16585 0.070737 -0.72541 -0.25566 -0.074706 -0.35091 0.33213 -0.26209 0.19716 0.0498 0.86239 0.029233 -0.45009 0.18284 -0.15519 -0.23359 0.19152 -0.12937 0.10903 0.016078 -0.13749 -0.41118 0.040532 0.057191 -0.2669 0.20227 0.55994 -0.44846 0.76605 0.46831 0.054384 -0.41294 0.17873 -0.094017 -0.39153 0.17789 0.15345 -0.3698 0.208 0.41725 0.55476 0.30001 -2.8891 -0.044236 -0.17747 0.26018 -0.25144 -0.39231 -0.32884 0.32298 -0.0097606 0.32614 -0.212 0.14362 -0.077971 0.20836 0.25471 -0.29642 -0.56253 0.23444 -0.20279 0.82204 0.066799 0.21301 -0.40659 0.16808 -0.18481 0.067325 0.37133 -0.03663 -0.039825 0.010339 0.21 0.62665 -0.42974 -0.18688 0.16434 -0.045982 -0.27676 -0.2019 0.037917 -0.44648 0.031098 0.63047 0.093282 0.14884 -0.35375 -0.041865 0.32549 -0.5341 -0.28777 -0.36713 0.035505 -0.23219 0.10929 -0.17101 0.59065 0.2546 0.2155 0.12709 0.30459 0.16806 0.24071 -0.30733 -0.29703 -0.5284 -0.21167 0.21943 -0.032426 -0.11719 0.14915 0.28515 0.29849 0.017496 0.098917 0.36962 0.58393 -0.07063
deemed -0.066174 -0.21171 -0.12557 0.12334 0.048415 0.27459 -2.4743 0.58864 -0.27613 -0.0076417 -0.056233 -0.3182 -0.087775 -0.63285 0.013729 -0.046851 -0.019951 0.054989 0.84683 -0.11255 -0.021888 0.11968 -0.52741 0.25224 0.4131 0.56399 -0.13117 0.096891 0.22824 0.14309 -0.56513 0.17813 -0.3269 0.14816 -0.083097 -0.2656 0.067873 0.066031 0.0014341 -0.12454 0.11893 0.27885 -0.036323 0.17755 0.36623 0.17941 -0.072753 -0.32392 -0.44653 -0.11174 -0.012544 0.23549 -0.46222 0.44138 -0.41194 -0.29675 -0.31472 0.003205 -0.016631 -0.25958 -0.10333 0.31442 -0.26088 -0.082471 -0.25244 0.17613 -0.087193 -0.21511 0.29047 0.37588 0.43265 0.38368 0.25135 -0.56251 0.62216 0.055857 -0.41677 -0.2918 -0.38216 0.4111 0.032774 -1.3894 -0.076586 -0.21077 -0.57779 -0.25377 -0.4862 -0.36566 -0.062883 -0.38363 -0.061492 -0.4297 -0.11389 -0.32459 0.18595 -0.13316 -1.363 -0.37006 -0.48309 -0.056334 -0.047907 0.0048197 -0.11018 -0.2392 -0.12465 0.50118 -0.12852 -0.87708 0.0030145 0.1529 -0.18666 -0.25727 -0.10002 0.22336 0.055532 -0.10467 -0.036178 0.025681 -0.091133 -0.015589 0.19967 -0.054871 -0.45657 -0.65084 0.23498 -0.15773 0.30356 0.22727 -0.24659 0.27609 -0.20145 -0.011497 0.022418 0.05277 0.2998 0.11524 -0.1205 0.12323 -0.049712 -0.41026 0.10939 -0.21584 -0.26355 -0.23309 -0.12626 0.14188 0.20861 -0.20672 0.014134 -0.0071306 0.067079 0.58049 -0.38551 -0.049209 -0.49819 -0.28727 -0.083196 -0.18912 -0.18877 0.30721 -0.29034 -0.48298 0.49902 0.42893 -0.18649 -0.036546 0.63633 0.24589 0.071683 0.42877 0.10133 -0.047254 -0.11573 0.19412 -0.63468 0.15312 -0.093187 0.1625 0.058139 -0.16522 0.19783 -0.011584 -0.05762 0.028667 -0.83867 -0.12312 -0.38751 0.56754 0.072134 -0.17884 0.14094 0.21028 -0.13787 -0.30977 0.21816 0.19435 0.58164 0.33798 0.067976 -0.46024 0.2166 0.38698 0.29806 0.018441 -0.10194 0.43428 0.063765 0.46346 -0.15059 -0.0017399 0.53987 0.28357 0.21871 0.44285 -0.32364 0.11761 0.09329 -0.094425 -0.29035 -0.42508 0.34244 0.09421 -0.079433 -0.36168 -0.59251 0.60986 -0.080479 -0.24925 0.49204 -0.85335 0.11348 0.34299 -0.014786 -0.28438 0.084059 0.28817 0.35896 0.474 0.18784 0.19344 -0.40807 -0.10204 -0.05509 0.088914 -0.090593 0.073714 0.12124 0.16007 0.15571 -0.33146 -0.12969 -0.18453 -0.28333 -0.28228 -0.2696 -0.20384 0.24133 0.41548 -0.13735 -0.20376 -0.4116 0.46558 0.015341 0.57881 0.14072 0.45638 0.045791 -0.75609 -0.16784 -0.36064 0.031916 0.067467 -0.15193 0.73503 -0.2456 -0.054381 0.030434 -0.024444 0.26761 -0.21217 -0.101 -0.45729 0.24898 -0.029514 -0.24261 0.26447 0.42113 -0.27557 0.088764 -0.079771 -0.14379 0.015306 -0.1333 0.090652 0.45941 -0.4334 0.54216 -0.52037 -0.68788 -0.02818
never -0.081803 0.25763 -0.11158 0.29804 -0.03523 0.3596 -3.9677 0.1789 -0.10182 -0.87503 -0.090864 -0.062391 0.26441 -0.42837 0.26309 0.23788 -0.091458 -0.4284 0.25979 -0.065291 0.19873 -0.18538 0.22222 0.1682 0.21808 -0.028289 -0.36069 0.075172 -0.081611 0.23951 -0.22739 0.18242 0.17229 0.10843 0.10521 0.041592 -0.17813 0.072916 0.11953 -0.20743 0.015622 0.20662 -0.33584 -0.0099734 -0.3656 0.28262 -0.042699 -0.24274 -0.1714 0.0010597 -0.22598 -0.40514 0.25902 -0.16983 0.098541 0.10669 0.020652 -0.038458 -0.072895 0.011158 0.33892 -0.02157 0.32032 -0.17129 0.21224 0.19849 0.29192 -0.10845 -0.35945 -0.27447 -0.36172 0.5962 0.24159 0.22942 0.040691 0.46208 0.39112 -0.048688 -0.00066772 -0.076977 0.024286 -0.6383 -0.18911 0.16851 -0.3772 -0.2472 -0.051306 0.038764 0.24434 -0.31572 0.40526 0.11636 -0.0092939 -0.076016 -0.1177 -0.30071 -1.5148 -0.031993 0.26551 -0.08817 0.077225 0.02192 0.009203 0.072741 -0.21446 -0.048003 0.088097 -0.52075 -0.049818 -0.44113 0.038311 -0.22235 0.21854 0.16688 -0.18691 0.68015 0.026214 -0.019407 0.0021945 0.18391 -0.053549 -0.29522 -0.20044 0.04608 -0.024033 -0.044246 0.32589 -0.017348 -0.10389 -0.25635 -0.34384 -0.17158 0.10755 0.050313 0.50749 0.077632 0.14672 0.12801 -0.02455 0.20376 0.059055 0.052157 0.083324 -0.09467 0.043463 -0.30473 -0.18144 0.086137 0.083714 0.13812 -0.034285 0.52446 0.044047 -0.079875 0.25263 0.23691 -0.36857 -0.39868 0.018989 0.28727 -0.082253 0.37736 -0.069331 -0.22696 0.10144 0.14158 0.33138 0.15809 -0.10518 -0.20067 -0.22771 0.32212 -0.24675 -0.18502 -0.086017 0.2309 -0.12582 -0.13772 -0.06647 -0.33189 -0.097322 0.30285 -0.12557 0.25412 -0.20579 0.014379 -0.29304 -0.048596 -0.096121 0.22006 0.17654 -0.11706 0.16607 -0.10629 -0.25297 -0.007431 0.37896 -0.15683 -0.19553 -0.13587 0.27542 -0.31443 -0.30212 -0.11118 -0.29274 0.094178 0.083673 -0.076554 0.61664 0.080635 0.49264 0.17994 0.30002 -0.23285 0.29305 -0.097796 0.10228 -0.1278 0.18877 -0.35825 0.16481 -0.19715 0.045321 -0.17712 -2.7716 0.070536 -0.059418 0.10765 0.52367 -0.55217 -0.23667 0.21463 0.0043303 -0.17529 -0.36088 0.060339 0.17391 -0.034542 -0.013474 0.0078201 -0.3771 -0.16878 -0.76674 0.53779 0.081661 0.18902 -0.24811 0.37001 0.15951 0.081611 0.13874 -0.015325 -0.23659 -0.35219 0.1112 -0.039466 0.43618 0.32167 0.006946 0.22395 -0.20487 0.35874 -0.0081321 -0.13945 0.28613 0.036917 -0.16444 -0.12182 -0.2152 0.0012482 0.19438 -0.57837 -0.46594 0.11798 -0.089005 -0.26564 0.28199 0.19032 0.30854 0.20171 1.0169 -0.24194 0.02698 0.21397 -0.082157 0.15528 -0.084133 0.069353 -0.11408 -0.039691 -0.20385 0.020323 -0.0043013 -0.49688 0.2445 0.026273 0.2079 -0.17574 0.055485 0.24398
met -0.18369 0.11865 0.069417 0.24396 0.052061 0.029025 -2.4512 -0.28265 0.046734 -0.13358 -0.22791 0.32722 0.24267 -0.57178 0.059676 -0.18854 0.49034 -0.37622 -0.18497 0.038461 0.59806 -0.32096 0.16108 0.46059 0.17674 0.23819 0.59057 -0.013229 -0.027134 0.3214 -0.051302 0.12338 0.30821 -0.60709 -0.3956 -0.26731 0.12074 -0.091209 -0.19744 -0.37871 0.12329 -0.033755 0.34865 0.64973 -0.56986 -0.43429 -0.09312 -0.18178 -0.04447 -0.014378 -0.16843 -0.40993 0.0070767 -0.09979 -0.087518 -0.043859 -0.30091 -0.017098 0.14041 0.11348 -0.34332 0.13356 -0.14906 -0.70546 -0.067712 -0.044088 0.38866 0.5436 -0.054421 -0.26784 -0.17735 0.089176 0.0621 0.0057015 -0.051058 0.046669 -0.057915 0.35753 -0.021755 -0.36896 0.071646 -0.90451 -0.20676 -0.50117 -0.53153 -0.23844 -0.046985 -0.49737 0.31824 -0.048613 0.16106 0.12017 -0.11817 0.46215 -0.22222 -0.12448 -1.0994 0.086666 -0.11294 0.25879 -0.39359 -0.010288 -0.32166 -0.20982 -0.28392 0.22406 0.19691 -0.81963 -0.026674 0.10151 -0.06726 -0.32857 -0.15538 0.16881 -0.20593 0.74412 -0.48503 0.011935 0.24181 0.017814 -0.28638 -0.17855 -0.27858 0.22157 0.031432 0.3336 -0.42634 0.098388 -0.10177 -0.0084755 -0.14596 -0.43955 -0.50896 -0.35775 0.46422 0.22381 -0.063492 0.11501 -0.29315 0.47357 0.18753 0.30597 0.1576 0.48434 0.17002 -0.33668 0.047582 -0.24706 0.19211 -0.30183 0.10538 0.20454 0.35973 0.25358 -0.51527 -0.67752 0.18059 -0.16855 0.58624 -0.21821 0.0883 0.12549 -0.22405 -0.39266 -0.51932 0.49368 0.37702 -0.072279 -0.52991 -0.94468 0.7664 0.22201 0.042898 0.28341 -0.40928 0.048971 0.082637 -0.088721 -0.1766 0.30809 0.30794 0.17194 0.13009 -0.032136 -0.74743 -0.18052 -0.28775 0.057243 -0.3154 0.13483 0.0869 0.035945 0.17918 -0.060719 0.2453 0.22143 0.012168 -0.084077 -0.19096 -0.10474 0.14712 0.19455 0.23513 0.044753 -0.22451 -0.056245 0.46512 0.056512 0.48339 0.082197 0.13832 0.10197 0.25451 -0.10684 -0.047441 0.002122 -0.49759 0.0034137 0.29415 -0.034733 0.22033 0.13514 -0.13816 0.48348 -2.6523 0.012337 -0.36968 -0.26145 -0.16084 -0.62227 -0.41925 -0.024132 0.35771 0.30481 0.22692 -0.15548 -0.26474 0.26663 -0.11693 0.079723 -0.1897 0.3582 -0.4206 0.35704 0.087754 0.45736 -0.42375 0.10313 -0.18376 0.072598 0.22471 -0.087536 -0.21131 -0.23897 0.046068 0.23776 0.17246 0.22883 0.3229 -0.19246 0.21747 0.39486 0.13188 -0.092084 0.21025 0.58736 -0.0089919 0.31835 -0.23852 -0.1948 0.32387 -0.39516 0.026388 -0.0014363 -0.043969 0.035302 0.010885 -0.38746 0.15613 0.080464 0.30823 0.0056623 0.34527 0.015249 0.1441 0.22851 -0.13661 -0.10432 0.30684 0.20719 0.15679 -0.02878 0.039586 -0.024808 0.53377 -0.075089 -0.52679 0.38863 0.049928 0.06173
100 0.085631 0.43432 0.034561 0.019331 0.34632 -0.14291 -2.61 0.2273 0.16912 -0.90248 -0.34642 0.25234 0.52681 -0.0091573 -0.53967 0.10066 -0.1939 0.2657 -0.53236 -0.11439 -0.11266 -0.092182 -0.16774 -0.035749 0.4086 0.10447 -0.26111 0.32059 -0.10375 -0.31149 -0.40362 0.028538 0.17943 -0.54206 0.091142 0.22344 0.38796 0.057188 -0.12606 -0.10623 -0.67998 -0.28741 -0.21556 0.26856 -0.19952 0.21738 -0.30075 0.5476 -0.8093 0.17695 0.33767 0.11671 -0.0059213 0.30308 -0.68351 0.0096903 -0.25668 -0.31081 -0.34883 -0.33687 -0.43935 -0.066642 -0.57892 -0.13118 0.3689 -0.03541 0.057295 -0.088833 0.12382 -0.44671 -0.64772 0.094068 0.070438 0.50686 -0.06501 -0.20618 0.23996 0.067928 -0.12262 -0.28086 0.22038 0.46285 0.062393 0.068454 -0.062659 0.40291 -0.055969 -0.45901 0.26685 0.079505 0.35652 -0.0068354 -0.49578 -0.29496 -0.21127 0.31855 -2.2515 0.025136 0.68222 -0.11097 -0.19317 -0.24836 0.69505 0.22305 -0.31599 0.041709 -0.055884 0.15216 -0.22227 0.087426 -0.62868 0.44009 -0.13774 -0.037676 -0.10108 0.31444 -0.096362 -0.03923 -0.39513 -0.18151 0.22217 -0.24887 -0.30312 0.16369 -0.28627 -0.47843 0.38595 0.46089 0.011551 0.77917 -0.039164 0.20738 0.040193 -0.047621 -0.48635 -0.55373 -0.36137 0.15581 -0.25251 0.38097 0.055015 -0.32363 -0.42284 -0.67741 -0.30917 -0.43467 0.57749 -0.0332 -0.42452 -0.017039 0.49622 -0.12277 0.10601 0.39832 -0.36953 -0.044882 -0.015872 -0.045301 0.028031 -0.13708 -0.18148 0.21018 0.4614 0.15049 -0.11497 -0.34373 0.37455 0.019925 0.49897 -0.2633 -0.27267 -0.075943 0.010819 0.0037126 -0.54267 -0.11994 0.1621 0.003421 -0.063814 0.172 -0.029267 0.27349 -0.432 0.45064 -0.0021322 -0.19398 -0.16256 -0.31047 0.29003 0.064456 0.23404 0.10418 -0.02234 0.27247 -0.14131 -0.071346 0.43938 -0.049934 0.048177 -1.1212 0.0061827 0.29579 0.25857 -0.17005 0.26998 0.30122 0.14332 0.086114 -0.28966 -0.1383 -0.3213 -0.24652 0.4203 0.23299 0.19877 0.072513 0.023053 -0.53767 -0.21709 -0.33839 0.005097 0.3933 0.31826 -0.095716 -3.5914 0.46936 -0.041655 -0.36993 -0.27917 -0.43582 -0.027371 -0.60445 -0.21306 -0.031387 0.37063 -0.36422 -0.44115 -0.016432 -0.13201 -0.34081 -0.19826 -0.65355 0.53739 0.1898 -0.18671 -0.11103 0.087665 -0.44472 -0.30772 0.12111 0.058367 -0.2541 -0.2922 -0.047652 0.1058 0.13655 -0.051604 -0.15827 7.7209e-05 0.61017 0.085657 0.39926 -0.3727 -0.28758 0.24719 -0.22083 -0.027435 0.079931 0.28322 -0.50265 -0.1479 0.55032 -0.12733 0.22235 -0.14617 0.0028374 0.39205 0.4549 -0.033233 0.039571 -0.039403 0.21076 0.013416 -0.39764 -0.14281 0.34629 0.18136 -0.29871 0.31344 0.44667 -0.06362 -0.56027 -0.29538 -0.57838 -0.16039 0.56619 -0.11733 0.018019 0.02397 0.080484
kids -0.25093 -0.00034525 0.1459 0.13848 0.45648 -0.22562 -2.9197 -0.81565 -0.22201 -0.76983 0.27781 -0.21782 -0.034012 -0.69776 -0.23273 0.21098 0.010213 -0.095297 0.044851 -0.14302 0.20163 0.13408 -0.24714 -0.18217 -0.068209 -0.095374 0.26667 0.052401 0.16101 0.13266 -0.64675 -0.34398 0.17848 0.48706 -0.11912 0.37027 -0.43062 0.34861 0.38929 0.013029 -0.1958 0.73675 -0.11062 0.018466 0.55183 -0.15302 0.19754 -0.3844 0.096452 -0.72565 0.27201 0.0072731 0.021846 0.071827 0.18866 -0.23587 0.047832 0.12177 0.17219 -0.022276 -0.68123 -0.21806 -0.30177 0.35662 -0.34587 0.34518 0.17873 -0.32482 0.49863 -0.050888 -0.1782 -0.059107 -0.18665 0.51579 0.047759 -0.049129 0.070029 -0.17624 -0.054081 -0.38538 0.81979 0.39928 -0.29785 0.47831 -0.27955 0.37252 0.46723 -0.089324 0.2983 0.025861 -0.55539 0.13691 0.39694 0.17469 0.1465 -0.38069 -2.1976 0.16824 0.11163 0.16184 -0.54401 -0.070093 0.52858 0.035801 0.088358 0.43253 -0.037579 -0.39097 0.44531 0.3058 0.16721 -0.27302 0.3695 0.88234 0.30044 0.23955 -0.50133 -0.44609 0.6634 -0.2549 0.37816 0.31989 0.52724 -0.13945 -2.989e-06 0.54184 0.43753 -0.23188 0.20061 -0.027236 0.11389 -0.0079047 -0.19926 -0.36896 -0.014849 -0.57388 0.24917 0.13095 0.13111 1.054 0.35094 -0.27412 -0.28529 0.11676 -0.28479 -0.26181 0.23095 0.33934 -0.20017 0.067173 0.020164 0.2193 -0.26514 -0.099001 0.57048 0.053986 -0.32647 0.13019 0.36156 0.52758 -0.50224 0.29235 -0.44123 -0.35073 -0.32684 0.14544 -0.090709 -0.0027367 -0.051144 -0.1633 0.26571 0.0088127 -0.33259 -0.21568 -0.18104 -0.13125 0.071011 -0.087336 -0.76532 0.070333 -0.42371 0.43006 0.029622 0.11889 0.46772 0.25634 -0.47072 -0.18862 0.54606 0.43867 -0.22044 -0.08572 -0.53847 0.058357 0.048536 0.21166 0.0035392 0.45941 -0.4602 0.13329 0.36587 0.005012 -0.086362 0.28157 -0.35929 -0.33855 0.35651 -0.63665 0.65264 0.29312 0.090527 0.13834 0.3674 -0.084435 -0.042824 -0.35642 -0.18442 -0.20382 0.27064 0.16672 -0.065826 0.26358 -0.13751 -0.30539 -2.9 -0.02871 -0.088882 0.18876 0.1121 -0.55729 0.2101 -0.069416 -0.22195 0.22634 -0.11816 0.20276 0.44531 -0.40215 0.9976 0.93587 -0.58798 -0.3297 -0.014969 0.85161 -0.24394 -0.58967 -0.087539 -0.31881 0.31343 0.27084 -0.16178 0.23223 0.28011 0.39598 0.45368 0.34911 -0.17843 -0.043174 0.52193 -0.14957 -0.24961 0.18127 -0.36824 0.00018452 0.51847 0.20561 -0.043224 0.47638 0.10313 0.18114 -0.45856 -0.17814 -0.15838 0.28569 -0.39671 0.056831 0.52335 0.31899 0.038498 0.21347 0.30007 0.07013 -0.21395 0.16685 0.23683 0.00043432 0.22655 0.1094 0.074572 -0.28728 0.19462 0.23535 -0.28529 -0.21566 -0.13837 -0.40123 0.17048 0.4565 0.47006 0.20427
daughter -0.2343 0.40537 -0.47325 0.42937 -0.34274 0.18163 -2.3224 -0.47436 -0.43629 -0.78706 0.059429 -0.029004 0.34444 -0.6024 -0.1537 -0.47272 0.71712 -0.70495 -0.5262 0.059638 0.50411 0.068321 0.10262 -0.081297 0.30132 0.015746 0.41278 -0.1424 -0.17362 0.25553 -0.032269 -0.32841 0.50661 0.28655 -0.059121 0.27625 -0.4112 0.29026 0.19297 0.29445 -0.029643 0.3855 -0.11704 0.012249 0.077843 -0.38166 -0.058229 -0.35674 -0.096358 0.19354 -0.076239 -0.29498 0.5233 0.36812 -0.47873 0.056029 0.42396 0.147 0.45701 -0.18391 -0.20131 0.014065 0.26467 -0.087203 0.24103 0.078961 0.32787 -0.1168 -0.08248 -0.068682 0.10542 0.056451 -0.36317 0.58303 0.59428 -0.014511 -0.13453 0.29328 -0.38255 -0.34005 0.44574 -1.0108 -0.4622 -0.099208 -0.2532 0.64444 -0.11118 -0.18699 0.39402 -0.29279 -0.29585 0.15459 0.21436 -0.014131 -0.04497 -0.27379 -0.65337 -0.17974 -0.15196 0.41605 0.11146 -0.22708 0.26592 -0.34378 -0.055251 0.14157 -0.5207 -0.82653 -0.11881 -0.32011 0.2858 -0.057727 0.13007 0.54457 0.37278 0.60201 0.084452 0.23663 0.47293 0.23038 -0.45697 0.00087161 0.20236 0.094866 -0.31703 -0.22742 0.31931 -0.37173 -0.32502 0.5524 0.40524 -0.2399 -0.33891 -0.15395 0.23733 -0.12394 0.40996 0.12801 0.1522 0.48509 0.097688 -0.25892 0.089843 0.67636 0.073076 -0.49443 -0.12332 0.033697 0.50099 0.41408 -0.15534 0.17034 -0.1815 -0.21142 0.097133 0.05607 -0.21215 0.49194 0.2949 -0.26263 0.24193 0.04639 -0.77491 0.070364 0.12374 0.19164 -0.12028 0.11041 -0.49496 -0.56808 0.33697 -0.19414 -0.62823 -0.47302 -0.26854 0.41889 -0.48454 -0.35276 -0.73931 0.48111 -0.15994 0.087957 0.14215 -0.11924 -0.37471 0.36798 -0.17024 0.099044 0.12008 -0.22299 -0.58405 -0.47645 0.19776 0.54319 0.26061 -0.15817 -0.34708 -0.10617 0.294 0.26868 -0.12179 0.036391 -0.10794 0.32221 -0.11516 -0.066997 -0.080454 -0.1424 0.047366 -0.20666 0.47821 0.13075 0.32229 -0.046209 0.030879 -0.32578 -0.22697 0.007655 0.38164 0.50772 0.18402 0.34109 -0.11735 0.60311 -3.0778 -0.61925 -0.13388 -0.099011 -0.015409 -0.057776 0.19428 0.6887 -0.29318 0.041748 -0.60449 0.21795 0.15212 -0.047398 0.74869 0.15963 -0.15751 -0.30066 -0.83979 0.87395 0.26153 0.12605 0.14568 -0.0093563 -0.18875 -0.42028 0.22134 0.31067 0.31443 0.26209 0.54469 0.4752 -0.3787 0.5569 -0.33933 -0.28457 0.19517 -0.11385 -0.62616 0.46745 -0.072329 0.17697 0.52822 0.628 -0.026983 0.16038 0.082215 -0.050182 -0.38333 -0.0062336 -0.056776 0.28188 -0.16105 -0.60426 0.16836 0.23458 0.88046 0.5221 0.81155 -0.12725 -0.13792 -0.033092 0.069375 0.15136 -0.31574 -0.021195 0.2781 0.32937 -0.41796 0.40541 -0.18469 -0.021147 0.20044 0.32404 0.40311 0.11712
items 0.75503 -0.32465 -0.08368 -0.47537 0.89536 0.51137 -2.5229 -0.31032 -0.040929 -0.42646 -0.39176 -0.50833 0.011452 -0.048385 -0.098756 -0.094138 -0.14251 0.35349 1.3589 -0.28277 -0.068211 0.15865 -0.74254 0.069536 -0.047779 -0.44356 0.081299 0.10308 -0.36316 -0.2912 -0.60906 0.49192 -0.23447 -0.02066 -0.1324 0.012263 -0.36058 -0.46883 0.12022 0.13848 -0.14228 0.12354 0.27347 -0.034842 -0.3447 0.38071 -0.39402 0.24511 -0.63718 -0.33864 -0.31497 -0.24341 -0.13749 -0.31498 -0.064386 -0.44672 0.045045 0.065325 -0.42202 -0.19439 -0.097009 -0.12154 0.11788 0.15623 -0.19998 0.39457 -0.090344 -0.2959 -0.027399 0.14583 -0.065399 -0.58667 0.014773 0.3726 0.59672 0.43526 -0.16711 0.43325 0.31572 0.0052512 0.31495 0.031087 0.10776 0.66437 -0.20383 -0.21122 -0.26379 0.32089 0.3903 -0.14666 -0.14663 -0.22006 -0.094414 0.10897 0.14591 -0.8937 -2.5525 -0.77715 -0.16987 -0.35497 -0.71273 -0.3766 0.39201 -0.0069826 0.063812 0.5653 -0.065496 0.31858 -0.012967 -0.1513 -0.0006136 -0.18967 0.076111 -0.078534 0.4021 0.34645 0.1714 -0.41149 0.21121 -0.29106 0.70381 -0.42954 -0.22376 -0.41968 0.14954 -0.017373 0.012667 0.20582 0.25642 0.57568 -0.349 0.17089 -0.12724 -0.55858 -0.38678 0.13245 0.049075 0.17055 -0.01306 0.74988 0.25428 0.40982 -0.051426 -0.43974 0.019241 0.013666 -0.24287 -0.47283 0.84109 0.12236 0.17345 0.029036 -0.33098 0.0073656 0.37178 0.89708 -0.37666 -0.45082 0.13321 -0.090752 -0.31741 -0.36593 -0.025907 0.5435 0.065164 -0.41946 0.61419 0.013851 -0.26381 0.52459 -0.54646 -0.35445 -0.098956 -0.21821 -0.33031 -0.031618 0.20463 -0.32096 0.1332 0.050719 0.36349 0.10809 -0.087982 -0.49319 -0.26773 -0.11651 0.21522 0.094121 -0.011503 -0.023395 -0.36527 0.34323 -0.19452 0.19484 0.51885 0.17854 -0.076866 0.20044 -0.049815 0.037488 0.46119 0.080675 0.15052 0.44004 -0.12069 0.10934 0.25632 -0.53707 -0.19251 -0.038124 0.18015 0.44115 0.16517 0.30178 -0.88452 0.048426 0.073393 0.00050378 0.031389 0.64162 0.092405 0.081071 0.020153 -0.21199 -2.7733 0.34174 0.12492 -0.11066 0.072685 0.043881 0.16441 -0.68426 0.39395 0.065822 0.22361 0.34474 0.1186 -0.70139 -0.093477 -0.28059 -0.010361 0.0032411 0.36385 -0.62964 -0.61388 -0.46027 0.081868 -0.40049 0.31207 -0.2759 -0.13269 -0.2465 0.69198 -0.55431 0.1228 -0.003796 0.17537 0.40236 -0.41374 0.083543 -0.16148 0.50664 0.037144 -0.15019 0.33022 -0.22851 0.35008 -0.16303 0.10684 -0.0048426 -0.4405 0.045442 0.30366 0.38946 -0.12352 -0.23493 0.13928 0.13337 0.18062 -0.33012 0.40732 0.45726 -0.025768 0.52745 -0.58681 -0.57565 0.74734 -0.10474 0.57672 -0.28823 0.047369 0.018831 -0.041076 -0.48871 0.1078 -0.28965 -0.27184 0.055467 0.18246 0.015133
